{"learner":{"attributes":{"best_iteration":"40","best_score":"0.4939091987587259","scikit_learn":"{\"_estimator_type\": \"regressor\"}"},"feature_names":["elevation","slope","aspect_degrees","snow_depth","new_snow_24h","swe","temp","Area"],"feature_types":["float","float","float","float","float","float","float","int"],"gradient_booster":{"model":{"cats":{"enc":[],"feature_segments":[],"sorted_idx":[]},"gbtree_model_param":{"num_parallel_tree":"1","num_trees":"71"},"iteration_indptr":[0,1,2,3,4,5,6,7,8,9,10,11,12,13,14,15,16,17,18,19,20,21,22,23,24,25,26,27,28,29,30,31,32,33,34,35,36,37,38,39,40,41,42,43,44,45,46,47,48,49,50,51,52,53,54,55,56,57,58,59,60,61,62,63,64,65,66,67,68,69,70,71],"tree_info":[0,0,0,0,0,0,0,0,0,0,0,0,0,0,0,0,0,0,0,0,0,0,0,0,0,0,0,0,0,0,0,0,0,0,0,0,0,0,0,0,0,0,0,0,0,0,0,0,0,0,0,0,0,0,0,0,0,0,0,0,0,0,0,0,0,0,0,0,0,0,0],"trees":[{"base_weights":[-2.0950303E-5,-6.706672E-2,1.3904516E-1,-1.8822809E-1,-2.2294283E-2,3.353421E-1,9.218379E-2,-9.840142E-3,-2.4615762E-1,2.0048382E-2,-1.5199472E-1,4.305833E-1,1.6186753E-1,-2.2282658E-2,1.9861998E-1,-1.0411148E-1,7.473742E-2,-2.6530257E-1,7.184638E-2,1.3110642E-1,-9.781487E-3,-2.4775186E-1,-9.238372E-2,3.237377E-1,5.3951865E-1,3.1549004E-1,2.5487084E-2,1.0066447E-1,-1.1319151E-1,4.498285E-1,1.0533281E-1,-1.898671E-1,-1.9256804E-2,1.2174876E-1,-2.0853886E-1,-3.4955835E-1,-1.8904862E-1,-7.646217E-3,4.8468742E-1,3.0671248E-1,9.175232E-2,-7.3895566E-2,3.605605E-2,-1.2201983E-1,-3.361434E-1,1.8927418E-2,-1.7315282E-1,5.847455E-1,2.3990119E-1,9.2436266E-1,4.579065E-1,1.5237364E-1,5.22463E-1,-5.3903505E-2,4.2921394E-1,1.1389558E-2,3.150861E-1,-2.0529597E-1,7.111889E-2,3.6846983E-1,8.8439745E-1,-1.8527925E-2,3.4349722E-1,-2.3663351E-2,3.8921789E-3,3.4570824E-2,-5.3903507E-3,7.2218985E-3,3.988769E-2,-5.2604256E-3,-3.843816E-2,-1.8450413E-2,-3.7363198E-2,-1.7000543E-2,-4.483703E-2,2.2197107E-2,-1.3587032E-2,7.241015E-2,9.9101495E-3,3.9604917E-2,1.4482031E-2,-1.4765772E-2,1.21316705E-2,-3.4087996E-3,-2.4231737E-2,6.8785674E-3,-1.0937448E-2,6.2645744E-3,-2.1403804E-2,-3.8229916E-2,-9.7150095E-3,-1.3386728E-2,8.694774E-3,-9.545949E-3,-2.6439426E-2,6.9250986E-2,9.34461E-3,3.3375114E-2,1.4475453E-2,4.8468743E-2,1.11103214E-1,6.1621934E-2,2.7557403E-2,3.373557E-2,2.5843163E-3,6.251808E-2,9.34461E-3,8.132173E-4,-2.6264433E-2,-1.0089851E-2,6.531184E-2,-6.525357E-4,7.457083E-2,2.7124478E-2,1.09910145E-1,-3.7284165E-3,-2.4172448E-2,2.7991546E-2,-1.0759739E-3,1.4475453E-2,4.465082E-2,3.3967584E-2,1.0624929E-1,-1.2317352E-2,9.760438E-3,4.3579895E-2,-1.7615523E-2],"categories":[],"categories_nodes":[],"categories_segments":[],"categories_sizes":[],"default_left":[0,0,0,0,0,0,0,0,0,0,0,0,0,0,0,0,0,0,0,0,0,0,0,0,0,0,0,0,0,0,0,0,0,0,0,0,0,0,0,0,0,0,0,0,0,0,0,0,0,0,0,0,0,0,0,0,0,0,0,0,0,0,0,0,0,0,0,0,0,0,0,0,0,0,0,0,0,0,0,0,0,0,0,0,0,0,0,0,0,0,0,0,0,0,0,0,0,0,0,0,0,0,0,0,0,0,0,0,0,0,0,0,0,0,0,0,0,0,0,0,0,0,0,0,0,0,0],"id":0,"left_children":[1,3,5,7,9,11,13,15,17,19,21,23,25,27,29,31,33,35,37,39,41,43,45,47,49,51,53,55,57,59,61,63,65,67,69,71,73,75,77,79,81,83,85,87,89,91,93,95,97,99,101,103,105,107,109,111,113,115,117,119,121,123,125,-1,-1,-1,-1,-1,-1,-1,-1,-1,-1,-1,-1,-1,-1,-1,-1,-1,-1,-1,-1,-1,-1,-1,-1,-1,-1,-1,-1,-1,-1,-1,-1,-1,-1,-1,-1,-1,-1,-1,-1,-1,-1,-1,-1,-1,-1,-1,-1,-1,-1,-1,-1,-1,-1,-1,-1,-1,-1,-1,-1,-1,-1,-1,-1],"loss_changes":[4.9651337E1,1.9471085E1,1.5858562E1,9.985558E0,1.4437872E1,5.3728523E0,1.7078783E1,1.9163228E0,4.488861E0,6.572852E0,3.6362906E0,2.2298164E0,2.4719942E0,7.55711E0,1.6910572E1,8.0498266E-1,1.6946771E0,4.3131905E0,1.4297581E0,2.834556E0,4.593964E0,2.6582375E0,3.6238902E0,2.2061548E0,2.7049255E0,1.743505E0,2.1440544E0,5.457653E0,6.631609E0,6.478607E0,1.5702946E1,6.281612E-1,7.354997E-1,1.4202279E0,4.296407E-1,1.1705933E0,1.6644211E0,1.0814781E0,4.9212325E-1,9.8773813E-1,2.4571924E0,4.3354087E0,4.3349614E0,1.7957777E0,1.5033684E0,1.7633888E0,1.5904784E0,1.2332497E0,6.7177534E-1,6.9718075E-1,2.2811775E0,7.273553E-1,9.273405E-1,7.398029E-1,1.4267609E0,2.762457E0,2.4521103E0,1.5543947E0,2.2524042E0,2.791788E0,2.409254E0,4.268036E0,8.832331E0,0E0,0E0,0E0,0E0,0E0,0E0,0E0,0E0,0E0,0E0,0E0,0E0,0E0,0E0,0E0,0E0,0E0,0E0,0E0,0E0,0E0,0E0,0E0,0E0,0E0,0E0,0E0,0E0,0E0,0E0,0E0,0E0,0E0,0E0,0E0,0E0,0E0,0E0,0E0,0E0,0E0,0E0,0E0,0E0,0E0,0E0,0E0,0E0,0E0,0E0,0E0,0E0,0E0,0E0,0E0,0E0,0E0,0E0,0E0,0E0,0E0,0E0,0E0,0E0],"parents":[2147483647,0,0,1,1,2,2,3,3,4,4,5,5,6,6,7,7,8,8,9,9,10,10,11,11,12,12,13,13,14,14,15,15,16,16,17,17,18,18,19,19,20,20,21,21,22,22,23,23,24,24,25,25,26,26,27,27,28,28,29,29,30,30,31,31,32,32,33,33,34,34,35,35,36,36,37,37,38,38,39,39,40,40,41,41,42,42,43,43,44,44,45,45,46,46,47,47,48,48,49,49,50,50,51,51,52,52,53,53,54,54,55,55,56,56,57,57,58,58,59,59,60,60,61,61,62,62],"right_children":[2,4,6,8,10,12,14,16,18,20,22,24,26,28,30,32,34,36,38,40,42,44,46,48,50,52,54,56,58,60,62,64,66,68,70,72,74,76,78,80,82,84,86,88,90,92,94,96,98,100,102,104,106,108,110,112,114,116,118,120,122,124,126,-1,-1,-1,-1,-1,-1,-1,-1,-1,-1,-1,-1,-1,-1,-1,-1,-1,-1,-1,-1,-1,-1,-1,-1,-1,-1,-1,-1,-1,-1,-1,-1,-1,-1,-1,-1,-1,-1,-1,-1,-1,-1,-1,-1,-1,-1,-1,-1,-1,-1,-1,-1,-1,-1,-1,-1,-1,-1,-1,-1,-1,-1,-1,-1],"split_conditions":[1.20755104E2,6.0580914E1,3.251368E1,2.752479E0,2.7339323E1,6E0,1.5335643E2,9.830633E0,2.4029796E0,2.3420186E0,1.0414E2,1.3084239E2,2.9636826E1,3.7086227E1,4.4027805E1,3.5559162E1,1.9210358E1,4.699575E1,3.2820792E2,1.5842937E1,8.21482E1,1.0851799E1,3.1740366E1,5.4527283E1,2.3420186E0,-1.0689912E1,1.3946288E2,1.3843573E2,2.523099E1,3.234637E1,1.9489348E2,8E0,-2.1816536E1,-3.1784377E0,5.7562447E1,2.1197357E1,3.2134018E2,7.924903E1,3.4394757E2,4E0,7.1660416E1,1.8204323E1,8E0,9.102572E1,2.7649078E2,9.32397E1,5E0,3.0751223E1,1.5521534E1,1.4298993E2,9.206011E1,-1.5385459E1,2.741849E2,-7.788065E0,3.1547155E1,-1.1369829E0,3.3798215E2,2.3420186E0,1E0,-1.4427805E1,1.5766632E2,2.1663757E1,8E0,-2.3663351E-2,3.8921789E-3,3.4570824E-2,-5.3903507E-3,7.2218985E-3,3.988769E-2,-5.2604256E-3,-3.843816E-2,-1.8450413E-2,-3.7363198E-2,-1.7000543E-2,-4.483703E-2,2.2197107E-2,-1.3587032E-2,7.241015E-2,9.9101495E-3,3.9604917E-2,1.4482031E-2,-1.4765772E-2,1.21316705E-2,-3.4087996E-3,-2.4231737E-2,6.8785674E-3,-1.0937448E-2,6.2645744E-3,-2.1403804E-2,-3.8229916E-2,-9.7150095E-3,-1.3386728E-2,8.694774E-3,-9.545949E-3,-2.6439426E-2,6.9250986E-2,9.34461E-3,3.3375114E-2,1.4475453E-2,4.8468743E-2,1.11103214E-1,6.1621934E-2,2.7557403E-2,3.373557E-2,2.5843163E-3,6.251808E-2,9.34461E-3,8.132173E-4,-2.6264433E-2,-1.0089851E-2,6.531184E-2,-6.525357E-4,7.457083E-2,2.7124478E-2,1.09910145E-1,-3.7284165E-3,-2.4172448E-2,2.7991546E-2,-1.0759739E-3,1.4475453E-2,4.465082E-2,3.3967584E-2,1.0624929E-1,-1.2317352E-2,9.760438E-3,4.3579895E-2,-1.7615523E-2],"split_indices":[3,3,5,1,5,7,3,5,6,1,3,3,5,5,5,3,5,3,2,5,3,1,5,2,1,6,3,3,1,1,3,7,6,6,3,3,2,2,2,7,3,5,7,3,2,2,7,5,1,3,2,6,2,6,5,6,2,1,7,6,3,1,7,0,0,0,0,0,0,0,0,0,0,0,0,0,0,0,0,0,0,0,0,0,0,0,0,0,0,0,0,0,0,0,0,0,0,0,0,0,0,0,0,0,0,0,0,0,0,0,0,0,0,0,0,0,0,0,0,0,0,0,0,0,0,0,0],"split_type":[0,0,0,0,0,0,0,0,0,0,0,0,0,0,0,0,0,0,0,0,0,0,0,0,0,0,0,0,0,0,0,0,0,0,0,0,0,0,0,0,0,0,0,0,0,0,0,0,0,0,0,0,0,0,0,0,0,0,0,0,0,0,0,0,0,0,0,0,0,0,0,0,0,0,0,0,0,0,0,0,0,0,0,0,0,0,0,0,0,0,0,0,0,0,0,0,0,0,0,0,0,0,0,0,0,0,0,0,0,0,0,0,0,0,0,0,0,0,0,0,0,0,0,0,0,0,0],"sum_hessian":[5.324E3,3.593E3,1.731E3,9.68E2,2.625E3,3.32E2,1.399E3,2.38E2,7.3E2,1.979E3,6.46E2,2.13E2,1.19E2,6.74E2,7.25E2,1.13E2,1.25E2,6.89E2,4.1E1,4.19E2,1.56E3,2.46E2,4E2,1.1E2,1.03E2,5.5E1,6.4E1,2.86E2,3.88E2,1.95E2,5.3E2,5.5E1,5.8E1,1.08E2,1.7E1,3.25E2,3.64E2,3.5E1,6E0,7.5E1,3.44E2,6.51E2,9.09E2,1.03E2,1.43E2,1.68E2,2.32E2,2.5E1,8.5E1,1.6E1,8.7E1,3.2E1,2.3E1,5.4E1,1E1,2.03E2,8.3E1,2.59E2,1.29E2,1.66E2,2.9E1,3.49E2,1.81E2,4.6E1,9E0,4E0,5.4E1,9.3E1,1.5E1,1E1,7E0,4.3E1,2.82E2,3.41E2,2.3E1,1.2E1,2.3E1,3E0,3E0,4.7E1,2.8E1,3.7E1,3.07E2,5.28E2,1.23E2,7.43E2,1.66E2,3.4E1,6.9E1,1.19E2,2.4E1,5.1E1,1.17E2,1.27E2,1.05E2,2E1,5E0,4.1E1,4.4E1,6E0,1E1,4.5E1,4.2E1,1.2E1,2E1,1.8E1,5E0,4.2E1,1.2E1,3E0,7E0,1.99E2,4E0,8E1,3E0,4.7E1,2.12E2,3.6E1,9.3E1,4.4E1,1.22E2,8E0,2.1E1,1.84E2,1.65E2,1.54E2,2.7E1],"tree_param":{"num_deleted":"0","num_feature":"8","num_nodes":"127","size_leaf_vector":"1"}},{"base_weights":[-6.7268504E-4,-3.1343676E-2,1.2544154E-1,6.0707007E-2,-5.5002395E-2,2.4432927E-1,9.2359655E-2,2.5079057E-1,2.9275125E-2,-1.9107865E-2,-1.2731995E-1,1.01796284E-1,3.6634716E-1,-1.6301274E-1,1.266318E-1,2.8099504E-1,-0E0,1.5415902E-1,6.825576E-4,-7.4052565E-2,1.492235E-2,2.2241165E-1,-1.4512154E-1,3.929202E-2,4.4467703E-1,3.3195794E-1,7.463069E-1,-2.2337683E-1,4.4092232E-1,3.3210802E-1,1.0003417E-1,3.399216E-1,1.8126777E-1,-9.3215294E-2,2.3323724E-2,7.1218215E-2,2.7192867E-1,1.6462058E-2,-2.0255235E-1,-4.4809055E-2,-2.204815E-1,-3.3193037E-2,7.451601E-2,-3.2053422E-2,4.911922E-1,-4.6180088E-2,-1.6691808E-1,-1.6431119E-1,1.8369257E-1,4.9296077E-3,6.66976E-1,4.1391945E-1,2.0592858E-1,3.1299096E-2,1.0103615E-1,-3.1179678E-1,-1.0981696E-1,6.630055E-2,-0E0,2.4827938E-1,9.7335374E-1,-2.7740386E-1,1.191527E-1,3.8693056E-2,7.996895E-3,1.2285296E-2,7.097026E-2,-3.3816468E-2,2.8411318E-3,4.024565E-3,5.3253558E-2,4.095286E-2,1.0016841E-2,4.577362E-3,-1.0237946E-2,-4.0037233E-2,-1.6853517E-3,3.092474E-3,-1.0106591E-2,-2.6129473E-2,-2.873137E-3,4.785856E-3,-9.440413E-3,1.584872E-2,-9.640259E-4,-2.8326351E-2,2.9122544E-2,3.0361762E-2,6.365388E-2,2.0988755E-2,-8.520089E-3,-2.5600294E-2,-1.411513E-2,6.190985E-3,-3.0301971E-2,4.510928E-3,4.120287E-2,8.250265E-2,1.9864371E-2,1.5799347E-2,4.7665473E-2,6.74131E-3,3.4318767E-2,-4.5834216E-3,-4.363291E-2,3.367659E-2,-1.6990067E-2,1.753691E-2,6.0203504E-2,1.3077919E-1,2.0335797E-2,-1.1705903E-2,-5.9242208E-2,7.431794E-3,2.3660697E-2],"categories":[],"categories_nodes":[],"categories_segments":[],"categories_sizes":[],"default_left":[0,0,0,0,0,0,0,0,0,0,0,0,0,0,0,0,0,0,0,0,0,0,0,0,0,0,0,0,0,0,0,0,0,0,0,0,0,0,0,0,0,0,0,0,0,0,0,0,0,0,0,0,0,0,0,0,0,0,0,0,0,0,0,0,0,0,0,0,0,0,0,0,0,0,0,0,0,0,0,0,0,0,0,0,0,0,0,0,0,0,0,0,0,0,0,0,0,0,0,0,0,0,0,0,0,0,0,0,0,0,0,0,0,0,0],"id":1,"left_children":[1,3,5,7,9,11,13,15,17,19,21,23,25,27,29,31,33,35,37,39,41,43,45,47,49,51,53,55,57,59,61,63,65,67,-1,69,71,73,75,77,79,81,83,85,87,89,91,93,95,-1,97,99,101,-1,-1,103,105,-1,-1,107,109,111,113,-1,-1,-1,-1,-1,-1,-1,-1,-1,-1,-1,-1,-1,-1,-1,-1,-1,-1,-1,-1,-1,-1,-1,-1,-1,-1,-1,-1,-1,-1,-1,-1,-1,-1,-1,-1,-1,-1,-1,-1,-1,-1,-1,-1,-1,-1,-1,-1,-1,-1,-1,-1],"loss_changes":[2.0646032E1,9.358602E0,4.0498486E0,5.2104244E0,8.85798E0,3.8463898E0,7.1850243E0,9.652691E-1,2.6803281E0,4.2832046E0,7.078356E0,2.2058709E0,1.225481E0,3.6129675E0,3.8748894E0,5.385647E-1,3.1317845E-1,1.3138263E0,1.9602035E0,3.7147083E0,4.0553355E0,3.8233979E0,2.2979317E0,2.7075586E0,1.3017778E0,1.0200167E0,5.8120203E-1,8.172436E-1,8.877449E-1,4.0440636E0,4.6499395E0,7.53335E-1,1.1877657E0,3.6829907E-1,0E0,1.1214969E0,1.2551584E0,1.9950315E0,1.5678672E0,3.1288586E0,1.0982513E0,3.8839145E0,4.4825687E0,2.4368138E0,4.4882965E-1,1.9738313E0,1.9510136E0,1.2352647E0,1.6444527E0,0E0,4.7394753E-1,9.3695164E-1,8.293923E-1,0E0,0E0,1.5547109E0,1.1406567E0,0E0,0E0,1.7253208E0,1.9005795E0,1.4255614E0,3.1741362E0,0E0,0E0,0E0,0E0,0E0,0E0,0E0,0E0,0E0,0E0,0E0,0E0,0E0,0E0,0E0,0E0,0E0,0E0,0E0,0E0,0E0,0E0,0E0,0E0,0E0,0E0,0E0,0E0,0E0,0E0,0E0,0E0,0E0,0E0,0E0,0E0,0E0,0E0,0E0,0E0,0E0,0E0,0E0,0E0,0E0,0E0,0E0,0E0,0E0,0E0,0E0,0E0],"parents":[2147483647,0,0,1,1,2,2,3,3,4,4,5,5,6,6,7,7,8,8,9,9,10,10,11,11,12,12,13,13,14,14,15,15,16,16,17,17,18,18,19,19,20,20,21,21,22,22,23,23,24,24,25,25,26,26,27,27,28,28,29,29,30,30,31,31,32,32,33,33,35,35,36,36,37,37,38,38,39,39,40,40,41,41,42,42,43,43,44,44,45,45,46,46,47,47,48,48,50,50,51,51,52,52,55,55,56,56,59,59,60,60,61,61,62,62],"right_children":[2,4,6,8,10,12,14,16,18,20,22,24,26,28,30,32,34,36,38,40,42,44,46,48,50,52,54,56,58,60,62,64,66,68,-1,70,72,74,76,78,80,82,84,86,88,90,92,94,96,-1,98,100,102,-1,-1,104,106,-1,-1,108,110,112,114,-1,-1,-1,-1,-1,-1,-1,-1,-1,-1,-1,-1,-1,-1,-1,-1,-1,-1,-1,-1,-1,-1,-1,-1,-1,-1,-1,-1,-1,-1,-1,-1,-1,-1,-1,-1,-1,-1,-1,-1,-1,-1,-1,-1,-1,-1,-1,-1,-1,-1,-1,-1],"split_conditions":[1.016E1,2.3420186E0,1E0,-4.1736956E0,-5.7171783E0,3.431E3,3E0,4.0756786E-1,-1.3941225E1,3.503E3,-7.62E0,3.555559E2,3.4394757E2,3.744E3,1.3247312E0,7E0,3.4415734E0,-1.645356E1,2.895E3,8E0,2.3641115E1,-8.99868E0,1E0,1.7612625E1,-1.4129827E1,1.1868615E2,-1.5274364E1,1.6588757E1,3.0790424E2,-4.7944093E0,2.895E3,-2.55907E0,-4.9921303E0,2.539E3,2.3323724E-2,8.513923E0,2.5086136E0,8E0,5.039399E-1,1.5371124E1,3.421E3,-1.2212127E1,1.09916405E2,1.2553768E2,2.3400368E1,-5.3111334E0,3E0,1.1670572E1,-1.1724369E1,4.9296077E-3,-8.06136E0,-1.7297407E1,3.672E3,3.1299096E-2,1.0103615E-1,1.1190623E0,1.880855E1,6.630055E-2,-0E0,2.9685125E1,8E0,1.3651007E1,2.791049E1,3.8693056E-2,7.996895E-3,1.2285296E-2,7.097026E-2,-3.3816468E-2,2.8411318E-3,4.024565E-3,5.3253558E-2,4.095286E-2,1.0016841E-2,4.577362E-3,-1.0237946E-2,-4.0037233E-2,-1.6853517E-3,3.092474E-3,-1.0106591E-2,-2.6129473E-2,-2.873137E-3,4.785856E-3,-9.440413E-3,1.584872E-2,-9.640259E-4,-2.8326351E-2,2.9122544E-2,3.0361762E-2,6.365388E-2,2.0988755E-2,-8.520089E-3,-2.5600294E-2,-1.411513E-2,6.190985E-3,-3.0301971E-2,4.510928E-3,4.120287E-2,8.250265E-2,1.9864371E-2,1.5799347E-2,4.7665473E-2,6.74131E-3,3.4318767E-2,-4.5834216E-3,-4.363291E-2,3.367659E-2,-1.6990067E-2,1.753691E-2,6.0203504E-2,1.3077919E-1,2.0335797E-2,-1.1705903E-2,-5.9242208E-2,7.431794E-3,2.3660697E-2],"split_indices":[4,1,7,4,6,0,7,6,6,0,4,2,2,0,1,7,6,6,0,7,1,4,7,4,6,2,6,1,2,6,0,6,4,0,0,4,4,7,4,1,0,6,2,2,1,4,7,1,6,0,6,6,0,0,0,1,1,0,0,4,7,1,1,0,0,0,0,0,0,0,0,0,0,0,0,0,0,0,0,0,0,0,0,0,0,0,0,0,0,0,0,0,0,0,0,0,0,0,0,0,0,0,0,0,0,0,0,0,0,0,0,0,0,0,0],"split_type":[0,0,0,0,0,0,0,0,0,0,0,0,0,0,0,0,0,0,0,0,0,0,0,0,0,0,0,0,0,0,0,0,0,0,0,0,0,0,0,0,0,0,0,0,0,0,0,0,0,0,0,0,0,0,0,0,0,0,0,0,0,0,0,0,0,0,0,0,0,0,0,0,0,0,0,0,0,0,0,0,0,0,0,0,0,0,0,0,0,0,0,0,0,0,0,0,0,0,0,0,0,0,0,0,0,0,0,0,0,0,0,0,0,0,0],"sum_hessian":[5.338E3,4.295E3,1.043E3,8.77E2,3.418E3,2.25E2,8.18E2,1.23E2,7.54E2,2.286E3,1.132E3,1.05E2,1.2E2,9.6E1,7.22E2,1.1E2,1.3E1,1.39E2,6.15E2,8.75E2,1.411E3,5.4E1,1.078E3,9E1,1.5E1,1.12E2,8E0,8.8E1,8E0,8.1E1,6.41E2,6.7E1,4.3E1,1E1,3E0,8.3E1,5.6E1,5.72E2,4.3E1,7.31E2,1.44E2,7.8E2,6.31E2,2.8E1,2.6E1,1.96E2,8.82E2,3.7E1,5.3E1,6E0,9E0,6.6E1,4.6E1,4E0,4E0,4.8E1,4E1,5E0,3E0,7.3E1,8E0,3E1,6.11E2,5.6E1,1.1E1,4E1,3E0,3E0,7E0,7.9E1,4E0,3E1,2.6E1,4.6E2,1.12E2,2E1,2.3E1,3.11E2,4.2E2,1.18E2,2.6E1,3.35E2,4.45E2,3.16E2,3.15E2,1.6E1,1.2E1,1.3E1,1.3E1,2.5E1,1.71E2,1.95E2,6.87E2,1.4E1,2.3E1,3.4E1,1.9E1,6E0,3E0,1.4E1,5.2E1,2.4E1,2.2E1,1.6E1,3.2E1,4E0,3.6E1,6.2E1,1.1E1,5E0,3E0,2.1E1,9E0,4.44E2,1.67E2],"tree_param":{"num_deleted":"0","num_feature":"8","num_nodes":"115","size_leaf_vector":"1"}},{"base_weights":[3.6210571E-3,-3.8671896E-2,1.7217147E-1,-2.0194793E-1,-1.095084E-2,3.6048648E-1,5.950654E-2,-2.2829175E-1,3.63659E-2,2.2589618E-2,-1.2738289E-1,2.5888255E-1,5.154602E-1,-4.6996642E-2,2.1822792E-1,-8.773577E-2,-2.723739E-1,-8.2873955E-2,1.3994208E-1,-9.939102E-3,1.8127713E-1,-7.4793026E-2,-1.8937354E-1,4.4062448E-1,9.535021E-2,-1.5171991E-1,5.436377E-1,-1.3083656E-1,4.3953504E-2,5.911612E-1,1.5416488E-1,7.1368674E-3,-1.4303689E-1,-3.4426308E-1,-1.7380244E-1,7.75389E-2,-3.2492042E-1,2.2985883E-1,-1.6851974E-1,8.348439E-2,-3.9148368E-2,1.1312376E-1,3.661222E-1,-1.6576181E-1,1.7296573E-2,-2.2999798E-1,-1.0711771E-1,9.109878E-1,4.054578E-1,2.37323E-2,3.7706292E-1,1.8646121E-2,-4.769711E-2,1.182297E-1,4.9412903E-1,-2.6086202E-2,-2.587616E-1,1.8908228E-1,-5.1079568E-2,1.0772212E0,3.3153376E-1,2.0370487E-2,2.6772994E-1,3.3541188E-2,-5.1777945E-3,-1.8019168E-2,9.276697E-3,3.631817E-3,-3.528313E-2,-3.4117065E-2,-5.919986E-3,-1.22493245E-2,3.5539076E-2,-9.436322E-3,-4.1590363E-2,6.393591E-2,1.2649535E-2,-3.3663627E-2,-0E0,1.4959115E-2,-1.4425999E-4,-9.679641E-3,1.2804902E-3,1.784336E-2,2.1399262E-3,3.065851E-3,4.338749E-2,-4.1145314E-3,-1.9458702E-2,1.6657634E-5,6.1442703E-2,-4.170237E-3,-2.6234508E-2,-1.4202304E-2,3.513209E-2,4.274057E-2,1.1418229E-1,3.8029954E-2,9.457871E-2,5.4516304E-2,-1.2366159E-3,-2.9377935E-2,6.449406E-2,6.2132567E-2,2.9179497E-2,1.9046469E-2,-1.1102847E-2,3.74933E-2,-2.8487166E-2,1.2718339E-2,3.6607977E-2,-1.4419677E-2,8.854599E-3,6.4414635E-2,1.4584509E-1,1.8445192E-2,9.218035E-2,-8.1006205E-3,4.028933E-2,4.2179257E-2,1.714176E-2],"categories":[],"categories_nodes":[],"categories_segments":[],"categories_sizes":[],"default_left":[0,0,0,0,0,0,0,0,0,0,0,0,0,0,0,0,0,0,0,0,0,0,0,0,0,0,0,0,0,0,0,0,0,0,0,0,0,0,0,0,0,0,0,0,0,0,0,0,0,0,0,0,0,0,0,0,0,0,0,0,0,0,0,0,0,0,0,0,0,0,0,0,0,0,0,0,0,0,0,0,0,0,0,0,0,0,0,0,0,0,0,0,0,0,0,0,0,0,0,0,0,0,0,0,0,0,0,0,0,0,0,0,0,0,0,0,0,0,0,0,0],"id":2,"left_children":[1,3,5,7,9,11,13,15,17,19,21,23,25,27,29,31,33,35,37,39,41,43,45,47,49,51,53,55,57,59,61,63,65,67,69,71,73,75,77,79,81,83,85,87,89,91,93,95,97,99,101,-1,-1,-1,103,105,107,109,111,113,115,117,119,-1,-1,-1,-1,-1,-1,-1,-1,-1,-1,-1,-1,-1,-1,-1,-1,-1,-1,-1,-1,-1,-1,-1,-1,-1,-1,-1,-1,-1,-1,-1,-1,-1,-1,-1,-1,-1,-1,-1,-1,-1,-1,-1,-1,-1,-1,-1,-1,-1,-1,-1,-1,-1,-1,-1,-1,-1,-1],"loss_changes":[3.802202E1,1.9267094E1,2.2638205E1,3.9073582E0,1.4247753E1,6.0874977E0,1.1370186E1,3.3912735E0,7.830297E-1,1.4627116E1,2.6196442E0,7.1562366E0,3.0731888E0,3.0797906E0,6.2849646E0,7.228968E-1,2.8858318E0,1.1759257E0,9.878898E-1,6.40886E0,5.982806E0,3.7372253E0,1.1880665E0,1.4012165E0,2.5738096E0,8.8794416E-1,4.02264E0,2.7788062E0,2.6853209E0,4.4235754E0,3.490829E0,1.0127432E0,7.789254E-1,8.3686066E-1,3.4114952E0,1.0672501E0,1.6144931E-1,9.853778E-1,2.2610474E-1,3.153395E0,5.3736906E0,2.096839E0,2.8722286E0,7.730508E-1,2.1990128E0,1.4691772E0,2.0452118E0,1.3644981E-1,9.8942757E-1,2.03642E0,4.896881E0,0E0,0E0,0E0,3.3819351E0,2.165339E0,1.6531076E0,7.477224E-1,1.5395135E0,9.9659634E-1,2.063431E0,4.252946E0,1.7231436E0,0E0,0E0,0E0,0E0,0E0,0E0,0E0,0E0,0E0,0E0,0E0,0E0,0E0,0E0,0E0,0E0,0E0,0E0,0E0,0E0,0E0,0E0,0E0,0E0,0E0,0E0,0E0,0E0,0E0,0E0,0E0,0E0,0E0,0E0,0E0,0E0,0E0,0E0,0E0,0E0,0E0,0E0,0E0,0E0,0E0,0E0,0E0,0E0,0E0,0E0,0E0,0E0,0E0,0E0,0E0,0E0,0E0,0E0],"parents":[2147483647,0,0,1,1,2,2,3,3,4,4,5,5,6,6,7,7,8,8,9,9,10,10,11,11,12,12,13,13,14,14,15,15,16,16,17,17,18,18,19,19,20,20,21,21,22,22,23,23,24,24,25,25,26,26,27,27,28,28,29,29,30,30,31,31,32,32,33,33,34,34,35,35,36,36,37,37,38,38,39,39,40,40,41,41,42,42,43,43,44,44,45,45,46,46,47,47,48,48,49,49,50,50,54,54,55,55,56,56,57,57,58,58,59,59,60,60,61,61,62,62],"right_children":[2,4,6,8,10,12,14,16,18,20,22,24,26,28,30,32,34,36,38,40,42,44,46,48,50,52,54,56,58,60,62,64,66,68,70,72,74,76,78,80,82,84,86,88,90,92,94,96,98,100,102,-1,-1,-1,104,106,108,110,112,114,116,118,120,-1,-1,-1,-1,-1,-1,-1,-1,-1,-1,-1,-1,-1,-1,-1,-1,-1,-1,-1,-1,-1,-1,-1,-1,-1,-1,-1,-1,-1,-1,-1,-1,-1,-1,-1,-1,-1,-1,-1,-1,-1,-1,-1,-1,-1,-1,-1,-1,-1,-1,-1,-1,-1,-1,-1,-1,-1,-1],"split_conditions":[1.3946288E2,1.055121E1,4.3023693E1,-2.889733E-1,3.1740366E1,1.5598468E2,1.8098048E2,2.983E3,2.2789919E1,1.1024908E2,3.64031E1,3.5490128E1,2.624E3,2.1827677E1,4.888962E1,-1.3181938E1,4.459693E1,1.32562895E1,5.254092E0,2.3420186E0,2.7307415E1,1.21388916E2,-2.0906532E0,2.455E3,3.691E3,2.389E3,2.779E3,-1.3862329E0,4.888962E1,3.023E3,3.231E3,-1.8287352E0,-3.0093048E0,4.144551E0,3.546E3,2.779E3,-2.8221993E0,-4.123407E0,1.6949415E1,2.0438763E1,7.955259E1,2.856694E1,-2.334853E0,1.8793291E0,-1.1369829E0,-4.539401E0,2.7433658E0,3.28422E1,3.995E3,2.539E3,1.0338787E1,1.8646121E-2,-4.769711E-2,1.182297E-1,3.9501686E1,4.4339604E0,2.523E3,1.6903581E2,3.606E3,1.2759026E1,-1.0689912E1,1.9448462E1,-1.0203686E1,3.3541188E-2,-5.1777945E-3,-1.8019168E-2,9.276697E-3,3.631817E-3,-3.528313E-2,-3.4117065E-2,-5.919986E-3,-1.22493245E-2,3.5539076E-2,-9.436322E-3,-4.1590363E-2,6.393591E-2,1.2649535E-2,-3.3663627E-2,-0E0,1.4959115E-2,-1.4425999E-4,-9.679641E-3,1.2804902E-3,1.784336E-2,2.1399262E-3,3.065851E-3,4.338749E-2,-4.1145314E-3,-1.9458702E-2,1.6657634E-5,6.1442703E-2,-4.170237E-3,-2.6234508E-2,-1.4202304E-2,3.513209E-2,4.274057E-2,1.1418229E-1,3.8029954E-2,9.457871E-2,5.4516304E-2,-1.2366159E-3,-2.9377935E-2,6.449406E-2,6.2132567E-2,2.9179497E-2,1.9046469E-2,-1.1102847E-2,3.74933E-2,-2.8487166E-2,1.2718339E-2,3.6607977E-2,-1.4419677E-2,8.854599E-3,6.4414635E-2,1.4584509E-1,1.8445192E-2,9.218035E-2,-8.1006205E-3,4.028933E-2,4.2179257E-2,1.714176E-2],"split_indices":[3,5,5,6,5,3,3,0,1,3,5,5,0,1,5,6,3,1,5,1,1,3,6,0,0,0,0,4,5,0,0,4,6,3,0,0,4,4,3,5,3,5,4,1,6,4,4,5,0,0,1,0,0,0,5,1,0,3,0,4,6,4,6,0,0,0,0,0,0,0,0,0,0,0,0,0,0,0,0,0,0,0,0,0,0,0,0,0,0,0,0,0,0,0,0,0,0,0,0,0,0,0,0,0,0,0,0,0,0,0,0,0,0,0,0,0,0,0,0,0,0],"split_type":[0,0,0,0,0,0,0,0,0,0,0,0,0,0,0,0,0,0,0,0,0,0,0,0,0,0,0,0,0,0,0,0,0,0,0,0,0,0,0,0,0,0,0,0,0,0,0,0,0,0,0,0,0,0,0,0,0,0,0,0,0,0,0,0,0,0,0,0,0,0,0,0,0,0,0,0,0,0,0,0,0,0,0,0,0,0,0,0,0,0,0,0,0,0,0,0,0,0,0,0,0,0,0,0,0,0,0,0,0,0,0,0,0,0,0,0,0,0,0,0,0],"sum_hessian":[5.33E3,4.261E3,1.069E3,6.17E2,3.644E3,3.99E2,6.7E2,5.56E2,6.1E1,2.829E3,8.15E2,2.43E2,1.56E2,4.01E2,2.69E2,1.34E2,4.22E2,2.8E1,3.3E1,2.348E3,4.81E2,4.43E2,3.72E2,1.14E2,1.29E2,6E0,1.5E2,2.09E2,1.92E2,3.8E1,2.31E2,4.9E1,8.5E1,2.42E2,1.8E2,1.7E1,1.1E1,2.6E1,7E0,5.58E2,1.79E3,3.53E2,1.28E2,2.23E2,2.2E2,2.47E2,1.25E2,6E0,1.08E2,1.04E2,2.5E1,3E0,3E0,9E0,1.41E2,1.16E2,9.3E1,7.6E1,1.16E2,1.2E1,2.6E1,1.07E2,1.24E2,7E0,4.2E1,7.4E1,1.1E1,5E0,2.37E2,7.2E1,1.08E2,1E1,7E0,4E0,7E0,4E0,2.2E1,3E0,4E0,3.14E2,2.44E2,8.49E2,9.41E2,2.05E2,1.48E2,2.2E1,1.06E2,4.3E1,1.8E2,2.15E2,5E0,3.7E1,2.1E2,1.17E2,8E0,3E0,3E0,1.05E2,3E0,6E0,9.8E1,7E0,1.8E1,8.5E1,5.6E1,3.2E1,8.4E1,3E0,9E1,5.8E1,1.8E1,7E1,4.6E1,7E0,5E0,2.2E1,4E0,8.5E1,2.2E1,4.6E1,7.8E1],"tree_param":{"num_deleted":"0","num_feature":"8","num_nodes":"121","size_leaf_vector":"1"}},{"base_weights":[6.037337E-3,-4.647786E-2,1.3197355E-1,-1.5950042E-1,-9.505764E-3,2.5598863E-1,7.4741855E-2,-3.8646817E-2,-1.9849896E-1,2.2184558E-2,-1.4591879E-1,2.28641E-1,8.052988E-1,-7.787544E-3,2.4032931E-1,3.644798E-1,-5.3450268E-2,-2.1572511E-1,4.4396263E-2,-4.1202558E-4,1.6635966E-1,-2.002971E-1,-9.9767074E-2,3.4290197E-1,1.6291228E-1,4.3953997E-1,1.4236543E-1,-1.733332E-1,3.502446E-2,5.15047E-1,1.4510866E-1,6.5789856E-3,5.1053584E-2,-9.245635E-2,3.6675088E-2,-2.8068158E-1,-1.4778936E-1,1.1705959E-1,-3.1196991E-2,9.228041E-3,-1.9066228E-1,6.997754E-2,2.534776E-1,-2.18706E-1,1.6703443E-1,3.6417216E-2,-1.4293367E-1,4.957621E-1,2.2688508E-1,8.8156156E-2,3.3857512E-1,7.8138167E-1,-9.731107E-2,-2.9977247E-1,-9.289909E-2,1.4925948E-1,-8.6784266E-2,4.411709E-1,1.6922572E-1,9.248508E-2,4.6987036E-1,-2.8658255E-3,-2.2128267E-2,1.0319672E-2,-2.684821E-2,4.093218E-3,-2.9414548E-2,-2.551694E-2,-1.15699945E-2,3.3170614E-2,9.6501375E-4,-6.8464584E-4,1.1902523E-2,-4.5086008E-2,-1.069928E-2,1.8970072E-3,2.8045828E-2,2.1355297E-2,6.0318347E-2,-1.53619815E-2,-2.9490802E-2,4.458509E-2,-8.1527475E-3,-2.2636985E-2,9.003434E-3,-4.6626825E-2,-1.1868152E-2,5.309995E-2,-0E0,1.2032535E-2,4.5695912E-2,3.1534992E-2,2.3858745E-3,2.9329557E-2,7.535285E-2,1.08192325E-1,3.8403343E-2,-3.5640106E-2,1.6110668E-2,-1.0083706E-2,-3.66039E-2,-6.8436908E-3,-4.19528E-2,5.7508503E-3,2.8517684E-2,3.254711E-3,-1.3482309E-2,2.3277625E-2,6.0024466E-2,3.491583E-2,5.807608E-3,8.743432E-2,2.6127253E-2],"categories":[],"categories_nodes":[],"categories_segments":[],"categories_sizes":[],"default_left":[0,0,0,0,0,0,0,0,0,0,0,0,0,0,0,0,0,0,0,0,0,0,0,0,0,0,0,0,0,0,0,0,0,0,0,0,0,0,0,0,0,0,0,0,0,0,0,0,0,0,0,0,0,0,0,0,0,0,0,0,0,0,0,0,0,0,0,0,0,0,0,0,0,0,0,0,0,0,0,0,0,0,0,0,0,0,0,0,0,0,0,0,0,0,0,0,0,0,0,0,0,0,0,0,0,0,0,0,0,0,0,0,0],"id":3,"left_children":[1,3,5,7,9,11,13,15,17,19,21,23,25,27,29,31,33,35,37,39,41,43,45,47,49,51,-1,53,55,57,59,-1,-1,61,63,65,67,69,-1,71,73,75,77,79,81,83,85,87,89,91,93,95,97,99,101,103,105,107,-1,109,111,-1,-1,-1,-1,-1,-1,-1,-1,-1,-1,-1,-1,-1,-1,-1,-1,-1,-1,-1,-1,-1,-1,-1,-1,-1,-1,-1,-1,-1,-1,-1,-1,-1,-1,-1,-1,-1,-1,-1,-1,-1,-1,-1,-1,-1,-1,-1,-1,-1,-1,-1,-1],"loss_changes":[3.5436935E1,1.5776998E1,1.11406975E1,4.3565235E0,1.2336083E1,7.178581E0,1.479789E1,1.354974E0,2.9681644E0,7.5521054E0,1.3002033E0,3.4609165E0,4.3898125E0,5.136962E0,9.276415E0,2.5778306E-1,7.893959E-1,2.814928E0,1.2340811E0,3.6879532E0,2.5864534E0,1.6984301E0,1.7441688E0,2.8655643E0,3.919568E0,3.0807338E0,0E0,1.4482188E0,8.0063095E0,7.041113E0,4.4975505E0,0E0,0E0,1.2508086E0,1.3712478E0,1.4836388E0,1.0498176E0,8.848661E-1,0E0,3.372469E0,2.007726E0,1.5858862E0,2.0792618E0,1.0704126E0,9.044194E-1,1.0071295E0,1.6426768E0,1.2313652E0,2.3389506E0,3.099269E0,1.3653116E0,6.321063E-1,5.456222E-1,6.67819E-1,6.655676E-1,3.6530848E0,1.6082613E0,2.6941833E0,0E0,1.9968246E0,2.779767E0,0E0,0E0,0E0,0E0,0E0,0E0,0E0,0E0,0E0,0E0,0E0,0E0,0E0,0E0,0E0,0E0,0E0,0E0,0E0,0E0,0E0,0E0,0E0,0E0,0E0,0E0,0E0,0E0,0E0,0E0,0E0,0E0,0E0,0E0,0E0,0E0,0E0,0E0,0E0,0E0,0E0,0E0,0E0,0E0,0E0,0E0,0E0,0E0,0E0,0E0,0E0,0E0],"parents":[2147483647,0,0,1,1,2,2,3,3,4,4,5,5,6,6,7,7,8,8,9,9,10,10,11,11,12,12,13,13,14,14,15,15,16,16,17,17,18,18,19,19,20,20,21,21,22,22,23,23,24,24,25,25,27,27,28,28,29,29,30,30,33,33,34,34,35,35,36,36,37,37,39,39,40,40,41,41,42,42,43,43,44,44,45,45,46,46,47,47,48,48,49,49,50,50,51,51,52,52,53,53,54,54,55,55,56,56,57,57,59,59,60,60],"right_children":[2,4,6,8,10,12,14,16,18,20,22,24,26,28,30,32,34,36,38,40,42,44,46,48,50,52,-1,54,56,58,60,-1,-1,62,64,66,68,70,-1,72,74,76,78,80,82,84,86,88,90,92,94,96,98,100,102,104,106,108,-1,110,112,-1,-1,-1,-1,-1,-1,-1,-1,-1,-1,-1,-1,-1,-1,-1,-1,-1,-1,-1,-1,-1,-1,-1,-1,-1,-1,-1,-1,-1,-1,-1,-1,-1,-1,-1,-1,-1,-1,-1,-1,-1,-1,-1,-1,-1,-1,-1,-1,-1,-1,-1,-1],"split_conditions":[1.2486099E2,5.86766E1,3.62519E1,2.859E3,3.0427782E1,3.968E3,1.7540675E2,-4.3390856E0,2.4029796E0,1.09069786E2,1.1194556E2,3.0751223E1,1.4749254E2,1.376436E2,4.9503605E1,-6.4018764E0,4.9685467E1,4.626189E1,3.968E3,-1.6772068E0,2.6401422E0,4.2717518E1,3.241149E1,9.659061E1,1.4298993E2,-8.936186E0,1.4236543E-1,1.3678992E2,4.5522778E1,2.0917447E2,1.9949545E1,6.5789856E-3,5.1053584E-2,2.54E0,5.7562447E1,8.6506176E-1,3.421E3,7.924903E1,-3.1196991E-2,3.793E3,6.64617E1,2.741849E2,-6.0281653E0,-2.4886043E0,3.577E3,-3.3471744E0,-1.4030079E1,3.552378E1,-8.596628E0,-2.9124343E0,-6.7448044E0,4.028E3,2.1724763E0,-2.5219977E0,4.9503605E1,1.568897E2,-4.8524213E0,-1.2909189E1,1.6922572E-1,-7.62E0,2.369155E1,-2.8658255E-3,-2.2128267E-2,1.0319672E-2,-2.684821E-2,4.093218E-3,-2.9414548E-2,-2.551694E-2,-1.15699945E-2,3.3170614E-2,9.6501375E-4,-6.8464584E-4,1.1902523E-2,-4.5086008E-2,-1.069928E-2,1.8970072E-3,2.8045828E-2,2.1355297E-2,6.0318347E-2,-1.53619815E-2,-2.9490802E-2,4.458509E-2,-8.1527475E-3,-2.2636985E-2,9.003434E-3,-4.6626825E-2,-1.1868152E-2,5.309995E-2,-0E0,1.2032535E-2,4.5695912E-2,3.1534992E-2,2.3858745E-3,2.9329557E-2,7.535285E-2,1.08192325E-1,3.8403343E-2,-3.5640106E-2,1.6110668E-2,-1.0083706E-2,-3.66039E-2,-6.8436908E-3,-4.19528E-2,5.7508503E-3,2.8517684E-2,3.254711E-3,-1.3482309E-2,2.3277625E-2,6.0024466E-2,3.491583E-2,5.807608E-3,8.743432E-2,2.6127253E-2],"split_indices":[3,3,5,0,5,0,3,4,6,3,3,5,3,3,5,4,3,3,0,6,4,5,5,2,3,6,0,2,5,3,4,0,0,4,3,5,0,2,0,0,3,2,6,4,0,4,6,4,6,4,6,0,4,4,5,3,4,6,0,4,4,0,0,0,0,0,0,0,0,0,0,0,0,0,0,0,0,0,0,0,0,0,0,0,0,0,0,0,0,0,0,0,0,0,0,0,0,0,0,0,0,0,0,0,0,0,0,0,0,0,0,0,0],"split_type":[0,0,0,0,0,0,0,0,0,0,0,0,0,0,0,0,0,0,0,0,0,0,0,0,0,0,0,0,0,0,0,0,0,0,0,0,0,0,0,0,0,0,0,0,0,0,0,0,0,0,0,0,0,0,0,0,0,0,0,0,0,0,0,0,0,0,0,0,0,0,0,0,0,0,0,0,0,0,0,0,0,0,0,0,0,0,0,0,0,0,0,0,0,0,0,0,0,0,0,0,0,0,0,0,0,0,0,0,0,0,0,0,0],"sum_hessian":[5.355E3,3.779E3,1.576E3,9.3E2,2.849E3,4.96E2,1.08E3,2.28E2,7.02E2,2.312E3,5.37E2,4.74E2,2.2E1,7.21E2,3.59E2,7E0,2.21E2,6.56E2,4.6E1,1.999E3,3.13E2,2.44E2,2.93E2,1.71E2,3.03E2,1.5E1,7E0,1.48E2,5.73E2,9.1E1,2.68E2,3E0,4E0,1.55E2,6.6E1,3.33E2,3.23E2,3.9E1,7E0,1.903E3,9.6E1,1.5E2,1.63E2,2.33E2,1.1E1,7E1,2.23E2,7.2E1,9.9E1,2.14E2,8.9E1,9E0,6E0,5.6E1,9.2E1,2.96E2,2.77E2,8.7E1,4E0,2.32E2,3.6E1,1.05E2,5E1,5.5E1,1.1E1,1.3E1,3.2E2,7.2E1,2.51E2,1.2E1,2.7E1,1.66E3,2.43E2,2.2E1,7.4E1,1.22E2,2.8E1,1.48E2,1.5E1,1.28E2,1.05E2,5E0,6E0,1.1E1,5.9E1,1.4E1,2.09E2,6.7E1,5E0,6.9E1,3E1,4.6E1,1.68E2,8.2E1,7E0,4E0,5E0,3E0,3E0,1.5E1,4.1E1,8.7E1,5E0,1.78E2,1.18E2,7.9E1,1.98E2,3.9E1,4.8E1,2.6E1,2.06E2,1.1E1,2.5E1],"tree_param":{"num_deleted":"0","num_feature":"8","num_nodes":"113","size_leaf_vector":"1"}},{"base_weights":[-2.0431976E-3,-4.9680114E-2,1.2736413E-1,-1.4966066E-1,-1.9198334E-2,1.5692261E-1,-4.168907E-2,-5.5097222E-2,-1.8137065E-1,5.2370033E-3,-1.1785577E-1,8.4895164E-2,2.2203194E-1,-2.354949E-1,7.272689E-2,3.124363E-1,-7.185505E-2,-1.9691825E-1,6.368745E-2,-4.746944E-3,2.100409E-1,-1.7155595E-1,3.3720717E-2,8.038938E-1,7.331971E-2,1.842512E-1,4.872031E-1,-2.86895E-1,2.504679E-1,-1.2051266E-2,8.1345606E-1,4.132841E-2,3.2843628E-3,-1.0725811E-1,8.429209E-3,-2.6863593E-1,-1.4636767E-1,2.2074135E-1,-9.1637276E-2,1.3891359E-2,-9.116596E-2,-5.9136994E-2,3.1502423E-1,-1.3075343E-1,-2.8758842E-1,-5.078199E-2,1.4245285E-1,2.8416866E-2,9.997283E-2,1.4512749E-1,1.0274894E-2,7.2124295E-2,2.546035E-1,6.3024217E-1,2.2923121E-1,-4.6049735E-1,-2.3993953E-1,6.913575E-2,-1.3233739E-2,-1.4734393E-1,8.57976E-2,1.1161132E-1,5.101896E-1,-1.3951878E-2,1.3206154E-3,-2.8629864E-2,7.2083683E-3,-6.379386E-3,-2.9731417E-2,-2.5214056E-2,-1.136472E-2,4.441807E-2,7.813456E-4,1.0324301E-2,-2.0359477E-2,-2.3295407E-3,6.2203114E-3,7.0023205E-4,-1.9532844E-2,-2.7859448E-2,3.450265E-3,4.406474E-2,9.4966E-3,-3.3714738E-2,-1.1078738E-2,-4.437649E-2,-2.012088E-2,-2.8890667E-2,4.1466425E-3,2.5827197E-2,-4.357214E-3,3.2247E-3,2.4287445E-2,6.4712795E-3,-1.3687258E-2,2.2766585E-2,-1.4806235E-2,2.324008E-2,5.9877772E-2,4.7374025E-2,1.1988759E-1,1.2490293E-2,6.090605E-2,-9.297189E-5,-5.7665855E-2,1.20561635E-2,-2.6278278E-2,-3.280712E-3,-3.753428E-2,4.0768307E-2,1.1724579E-3,6.685697E-2,1.2007202E-2],"categories":[],"categories_nodes":[],"categories_segments":[],"categories_sizes":[],"default_left":[0,0,0,0,0,0,0,0,0,0,0,0,0,0,0,0,0,0,0,0,0,0,0,0,0,0,0,0,0,0,0,0,0,0,0,0,0,0,0,0,0,0,0,0,0,0,0,0,0,0,0,0,0,0,0,0,0,0,0,0,0,0,0,0,0,0,0,0,0,0,0,0,0,0,0,0,0,0,0,0,0,0,0,0,0,0,0,0,0,0,0,0,0,0,0,0,0,0,0,0,0,0,0,0,0,0,0,0,0,0,0,0,0],"id":4,"left_children":[1,3,5,7,9,11,13,15,17,19,21,23,25,27,29,31,33,35,37,39,41,43,45,47,49,51,53,55,57,59,61,-1,-1,63,65,67,69,71,73,75,77,79,81,83,85,87,89,-1,-1,91,93,95,97,99,101,103,105,-1,-1,107,109,-1,111,-1,-1,-1,-1,-1,-1,-1,-1,-1,-1,-1,-1,-1,-1,-1,-1,-1,-1,-1,-1,-1,-1,-1,-1,-1,-1,-1,-1,-1,-1,-1,-1,-1,-1,-1,-1,-1,-1,-1,-1,-1,-1,-1,-1,-1,-1,-1,-1,-1,-1],"loss_changes":[3.2905014E1,1.1874965E1,7.1936913E0,2.6980896E0,7.2271876E0,5.685911E0,4.7787423E0,1.4211358E0,2.6205196E0,4.9268847E0,4.8626804E0,4.70549E0,6.2648544E0,2.0737839E0,8.567628E0,2.2377652E-1,6.4177954E-1,2.24304E0,1.0333071E0,3.6942842E0,3.209248E0,2.003706E0,1.4497541E0,5.0353956E-1,2.586056E0,4.3901253E0,2.6846867E0,4.1453028E-1,1.4975934E0,1.633861E0,5.529413E-1,0E0,0E0,6.168437E-1,1.2749465E0,1.4899197E0,1.2464619E0,9.504359E-1,4.8923948E-1,3.3864617E0,4.181959E0,6.916188E-1,2.1437893E0,1.2695007E0,1.370636E0,1.9697866E0,1.5193456E0,0E0,0E0,2.9216938E0,2.468844E0,7.542019E0,2.4140778E0,3.7143974E0,1.0393381E0,6.8908E-1,5.4000473E-1,0E0,0E0,1.304813E0,1.6461343E0,0E0,3.9694095E-1,0E0,0E0,0E0,0E0,0E0,0E0,0E0,0E0,0E0,0E0,0E0,0E0,0E0,0E0,0E0,0E0,0E0,0E0,0E0,0E0,0E0,0E0,0E0,0E0,0E0,0E0,0E0,0E0,0E0,0E0,0E0,0E0,0E0,0E0,0E0,0E0,0E0,0E0,0E0,0E0,0E0,0E0,0E0,0E0,0E0,0E0,0E0,0E0,0E0,0E0],"parents":[2147483647,0,0,1,1,2,2,3,3,4,4,5,5,6,6,7,7,8,8,9,9,10,10,11,11,12,12,13,13,14,14,15,15,16,16,17,17,18,18,19,19,20,20,21,21,22,22,23,23,24,24,25,25,26,26,27,27,28,28,29,29,30,30,33,33,34,34,35,35,36,36,37,37,38,38,39,39,40,40,41,41,42,42,43,43,44,44,45,45,46,46,49,49,50,50,51,51,52,52,53,53,54,54,55,55,56,56,59,59,60,60,62,62],"right_children":[2,4,6,8,10,12,14,16,18,20,22,24,26,28,30,32,34,36,38,40,42,44,46,48,50,52,54,56,58,60,62,-1,-1,64,66,68,70,72,74,76,78,80,82,84,86,88,90,-1,-1,92,94,96,98,100,102,104,106,-1,-1,108,110,-1,112,-1,-1,-1,-1,-1,-1,-1,-1,-1,-1,-1,-1,-1,-1,-1,-1,-1,-1,-1,-1,-1,-1,-1,-1,-1,-1,-1,-1,-1,-1,-1,-1,-1,-1,-1,-1,-1,-1,-1,-1,-1,-1,-1,-1,-1,-1,-1,-1,-1,-1],"split_conditions":[1.27745476E2,5.86766E1,8E0,2.942E3,-4.2520895E0,8.5712874E-1,9E0,-4.3390856E0,2.4029796E0,2.6452509E1,-1.8978031E-2,2.389E3,2.0019661E2,3.304E3,1.6903581E2,2.539E3,4.9685467E1,4.316378E1,3.721E3,8E0,7.7625465E1,-2.334853E0,1.8365222E2,-1.17856245E1,-3.693845E0,3E0,5E0,-1.5385459E1,1.5598468E2,3.596E3,3.023E3,4.132841E-2,3.2843628E-3,-3.0093048E0,-1.6009304E1,1.6949415E1,3.421E3,4.5137014E0,4.144551E0,9.7035515E1,9.767589E1,3.253E3,4E0,6.6985115E1,8.48018E1,3.263E3,3.231E3,2.8416866E-2,9.997283E-2,1.313255E2,-4.2520895E0,1E0,3.927E3,4E0,-5.497231E0,2.624E3,-1.4129827E1,6.913575E-2,-1.3233739E-2,2.779E3,-1.2264989E1,1.1161132E-1,1.0903339E1,-1.3951878E-2,1.3206154E-3,-2.8629864E-2,7.2083683E-3,-6.379386E-3,-2.9731417E-2,-2.5214056E-2,-1.136472E-2,4.441807E-2,7.813456E-4,1.0324301E-2,-2.0359477E-2,-2.3295407E-3,6.2203114E-3,7.0023205E-4,-1.9532844E-2,-2.7859448E-2,3.450265E-3,4.406474E-2,9.4966E-3,-3.3714738E-2,-1.1078738E-2,-4.437649E-2,-2.012088E-2,-2.8890667E-2,4.1466425E-3,2.5827197E-2,-4.357214E-3,3.2247E-3,2.4287445E-2,6.4712795E-3,-1.3687258E-2,2.2766585E-2,-1.4806235E-2,2.324008E-2,5.9877772E-2,4.7374025E-2,1.1988759E-1,1.2490293E-2,6.090605E-2,-9.297189E-5,-5.7665855E-2,1.20561635E-2,-2.6278278E-2,-3.280712E-3,-3.753428E-2,4.0768307E-2,1.1724579E-3,6.685697E-2,1.2007202E-2],"split_indices":[3,3,7,0,6,4,7,4,6,4,4,0,3,0,3,0,3,3,0,7,3,4,2,6,4,7,7,6,3,0,0,0,0,6,6,3,0,6,3,3,3,0,7,3,3,0,0,0,0,2,6,7,0,7,6,0,6,0,0,0,6,0,4,0,0,0,0,0,0,0,0,0,0,0,0,0,0,0,0,0,0,0,0,0,0,0,0,0,0,0,0,0,0,0,0,0,0,0,0,0,0,0,0,0,0,0,0,0,0,0,0,0,0],"split_type":[0,0,0,0,0,0,0,0,0,0,0,0,0,0,0,0,0,0,0,0,0,0,0,0,0,0,0,0,0,0,0,0,0,0,0,0,0,0,0,0,0,0,0,0,0,0,0,0,0,0,0,0,0,0,0,0,0,0,0,0,0,0,0,0,0,0,0,0,0,0,0,0,0,0,0,0,0,0,0,0,0,0,0,0,0,0,0,0,0,0,0,0,0,0,0,0,0,0,0,0,0,0,0,0,0,0,0,0,0,0,0,0,0],"sum_hessian":[5.337E3,3.902E3,1.435E3,9.1E2,2.992E3,1.222E3,2.13E2,2.3E2,6.8E2,2.398E3,5.94E2,5.82E2,6.4E2,7.9E1,1.34E2,9E0,2.21E2,6.4E2,4E1,2.287E3,1.11E2,4.39E2,1.55E2,8E0,5.74E2,5.62E2,7.8E1,7.2E1,7E0,1.21E2,1.3E1,6E0,3E0,1.54E2,6.7E1,2.62E2,3.78E2,2E1,2E1,1.881E3,4.06E2,3.1E1,8E1,3.27E2,1.12E2,8.7E1,6.8E1,3E0,5E0,2.67E2,3.07E2,2.18E2,3.44E2,4.9E1,2.9E1,1.3E1,5.9E1,3E0,4E0,5.1E1,7E1,5E0,8E0,1.22E2,3.2E1,1.1E1,5.6E1,3.3E1,2.29E2,8.7E1,2.91E2,9E0,1.1E1,7E0,1.3E1,1.062E3,8.19E2,2.09E2,1.97E2,9E0,2.2E1,5E1,3E1,2.7E1,3E2,3.8E1,7.4E1,2.4E1,6.3E1,4.2E1,2.6E1,1.25E2,1.42E2,2.25E2,8.2E1,1.28E2,9E1,3.25E2,1.9E1,4E1,9E0,2.4E1,5E0,3E0,1E1,3E0,5.6E1,3.5E1,1.6E1,1.2E1,5.8E1,5E0,3E0],"tree_param":{"num_deleted":"0","num_feature":"8","num_nodes":"113","size_leaf_vector":"1"}},{"base_weights":[-1.3422043E-3,-3.470042E-2,1.3693537E-1,-1.1998877E-1,1.3680693E-3,2.4835394E-1,5.3674433E-2,-2.2073712E-2,-1.497471E-1,2.8364804E-2,-1.388795E-1,1.9761956E-1,5.0634795E-1,-3.7312057E-2,2.5546345E-1,8.467284E-3,-1.3686565E-1,-2.0140554E-1,-1.2006533E-1,2.8438878E-4,1.0836968E-1,4.979292E-2,-1.835672E-1,1.3424683E-1,3.972107E-1,6.394169E-1,2.2660175E-1,-1.1291724E-1,4.367699E-2,4.1565955E-1,4.5999397E-2,3.931741E-2,-1.8823408E-1,-2.2413515E-1,-2.03633E-2,-5.468123E-2,-2.4544744E-1,3.0227706E-1,-1.2616375E-1,4.5688707E-2,-1.084245E-1,2.1838216E-1,5.0348476E-2,1.2841823E-2,3.4889793E-1,-3.1829965E-1,-1.3965397E-1,2.3113869E-1,-5.197684E-2,5.0772595E-1,1.0604968E-1,7.531977E-1,3.5853028E-1,-1.380167E-1,7.1229947E-1,-2.6629254E-1,-3.4204382E-2,1.4348394E-1,-5.556672E-2,6.3488513E-1,2.0300202E-1,-8.606527E-2,2.1164738E-1,-9.5791783E-4,2.3402018E-2,-2.1551391E-2,3.1603344E-3,8.958474E-3,-2.6927466E-2,-2.3091737E-2,9.734502E-3,3.0821788E-3,-3.9935913E-2,-2.6205346E-2,-9.887028E-3,1.9422686E-3,4.2380046E-2,-1.0612492E-2,-2.8319662E-2,3.7714094E-4,9.536377E-3,-1.8276487E-2,-1.3896293E-3,4.9307887E-2,1.7515345E-2,2.1084654E-3,1.6242638E-2,9.637784E-3,-1.1235568E-2,-0E0,6.836736E-2,-1.8660026E-2,-3.925426E-2,-1.6261031E-3,-1.758516E-2,9.153481E-3,3.573919E-2,-7.836266E-3,3.489996E-2,3.9644122E-2,7.86193E-2,-3.672902E-2,2.7141616E-2,4.4752937E-2,1.008678E-1,5.9972353E-2,2.9871587E-3,5.0113583E-3,-2.470932E-2,8.516141E-2,2.305953E-2,-5.426044E-3,-3.1938415E-2,2.5010377E-3,-2.818725E-2,1.9820964E-2,-8.032935E-3,2.0443177E-2,-1.3718227E-2,1.79032E-2,8.353028E-2,3.5727084E-2,2.6083589E-3,1.8440945E-2,-1.5954316E-2,6.055368E-3,5.5418212E-2],"categories":[],"categories_nodes":[],"categories_segments":[],"categories_sizes":[],"default_left":[0,0,0,0,0,0,0,0,0,0,0,0,0,0,0,0,0,0,0,0,0,0,0,0,0,0,0,0,0,0,0,0,0,0,0,0,0,0,0,0,0,0,0,0,0,0,0,0,0,0,0,0,0,0,0,0,0,0,0,0,0,0,0,0,0,0,0,0,0,0,0,0,0,0,0,0,0,0,0,0,0,0,0,0,0,0,0,0,0,0,0,0,0,0,0,0,0,0,0,0,0,0,0,0,0,0,0,0,0,0,0,0,0,0,0,0,0,0,0,0,0,0,0,0,0,0,0],"id":5,"left_children":[1,3,5,7,9,11,13,15,17,19,21,23,25,27,29,31,33,35,37,39,41,43,45,47,49,51,53,55,57,59,61,63,65,67,69,71,73,75,77,79,81,83,85,87,89,91,93,95,97,99,101,103,105,107,109,111,113,115,117,119,121,123,125,-1,-1,-1,-1,-1,-1,-1,-1,-1,-1,-1,-1,-1,-1,-1,-1,-1,-1,-1,-1,-1,-1,-1,-1,-1,-1,-1,-1,-1,-1,-1,-1,-1,-1,-1,-1,-1,-1,-1,-1,-1,-1,-1,-1,-1,-1,-1,-1,-1,-1,-1,-1,-1,-1,-1,-1,-1,-1,-1,-1,-1,-1,-1,-1],"loss_changes":[2.4686272E1,1.32828455E1,9.604353E0,3.7179031E0,1.1472727E1,5.6411285E0,1.09923115E1,1.0692625E0,1.4509182E0,5.704378E0,4.14544E0,4.611471E0,2.448742E0,2.5346107E0,6.1760054E0,1.4367554E0,6.216806E-1,2.2570448E0,1.6380138E0,9.302763E0,4.174949E0,9.9825794E-1,2.2527018E0,5.1723447E0,2.7485962E0,1.1528416E0,4.5830956E0,2.5443792E0,1.9879017E0,4.6824245E0,1.8246257E0,1.995388E0,2.1711028E-1,5.518936E-1,7.545709E-1,2.5247264E0,6.024971E-1,2.5680715E-1,1.8820009E0,2.7611938E0,3.877924E0,2.542389E0,1.4016695E0,8.982034E-1,1.1197505E0,8.0750084E-1,1.3223553E0,3.2359762E0,1.0371342E0,1.5533619E0,2.1252391E0,1.9800091E0,1.1874499E0,3.398896E-1,4.3359375E-1,7.5581884E-1,2.1299179E0,1.2525437E0,2.1433115E0,4.408432E0,1.4534605E0,9.411347E-1,1.8198977E0,0E0,0E0,0E0,0E0,0E0,0E0,0E0,0E0,0E0,0E0,0E0,0E0,0E0,0E0,0E0,0E0,0E0,0E0,0E0,0E0,0E0,0E0,0E0,0E0,0E0,0E0,0E0,0E0,0E0,0E0,0E0,0E0,0E0,0E0,0E0,0E0,0E0,0E0,0E0,0E0,0E0,0E0,0E0,0E0,0E0,0E0,0E0,0E0,0E0,0E0,0E0,0E0,0E0,0E0,0E0,0E0,0E0,0E0,0E0,0E0,0E0,0E0,0E0,0E0],"parents":[2147483647,0,0,1,1,2,2,3,3,4,4,5,5,6,6,7,7,8,8,9,9,10,10,11,11,12,12,13,13,14,14,15,15,16,16,17,17,18,18,19,19,20,20,21,21,22,22,23,23,24,24,25,25,26,26,27,27,28,28,29,29,30,30,31,31,32,32,33,33,34,34,35,35,36,36,37,37,38,38,39,39,40,40,41,41,42,42,43,43,44,44,45,45,46,46,47,47,48,48,49,49,50,50,51,51,52,52,53,53,54,54,55,55,56,56,57,57,58,58,59,59,60,60,61,61,62,62],"right_children":[2,4,6,8,10,12,14,16,18,20,22,24,26,28,30,32,34,36,38,40,42,44,46,48,50,52,54,56,58,60,62,64,66,68,70,72,74,76,78,80,82,84,86,88,90,92,94,96,98,100,102,104,106,108,110,112,114,116,118,120,122,124,126,-1,-1,-1,-1,-1,-1,-1,-1,-1,-1,-1,-1,-1,-1,-1,-1,-1,-1,-1,-1,-1,-1,-1,-1,-1,-1,-1,-1,-1,-1,-1,-1,-1,-1,-1,-1,-1,-1,-1,-1,-1,-1,-1,-1,-1,-1,-1,-1,-1,-1,-1,-1,-1,-1,-1,-1,-1,-1,-1,-1,-1,-1,-1,-1],"split_conditions":[1.3946288E2,6.882276E1,4.433072E1,2.5566144E0,3.4685844E1,1.6903581E2,1.9489348E2,5E0,4.626189E1,1.1164232E2,1E0,2.8166685E1,5E0,2.1663757E1,5E0,1.9210358E1,7.1159625E-1,2.379774E1,-7.486912E0,2.4007257E1,2.8359047E1,1.0903339E1,2E0,3.9501686E1,1.0329173E1,2.5478857E1,9E0,3E0,5.1270504E1,6.426603E1,7.4334764E0,1.2645603E1,6.302378E1,5.254092E0,4.1848415E1,4.1465227E-2,1.1582207E1,1.3003026E2,1.6353771E1,8.705098E1,2.3630994E2,1E0,1.320409E2,3.924974E1,2.6348486E1,-2.5423346E0,3.62519E1,1.4768039E2,3.1796094E2,1.568897E2,1.4060325E1,1.7540675E2,1.8E2,1.8098048E2,4.3747913E1,4.7269375E1,8E0,5E0,4.5293823E1,2E0,1E0,-7.62E0,2.730885E2,-9.5791783E-4,2.3402018E-2,-2.1551391E-2,3.1603344E-3,8.958474E-3,-2.6927466E-2,-2.3091737E-2,9.734502E-3,3.0821788E-3,-3.9935913E-2,-2.6205346E-2,-9.887028E-3,1.9422686E-3,4.2380046E-2,-1.0612492E-2,-2.8319662E-2,3.7714094E-4,9.536377E-3,-1.8276487E-2,-1.3896293E-3,4.9307887E-2,1.7515345E-2,2.1084654E-3,1.6242638E-2,9.637784E-3,-1.1235568E-2,-0E0,6.836736E-2,-1.8660026E-2,-3.925426E-2,-1.6261031E-3,-1.758516E-2,9.153481E-3,3.573919E-2,-7.836266E-3,3.489996E-2,3.9644122E-2,7.86193E-2,-3.672902E-2,2.7141616E-2,4.4752937E-2,1.008678E-1,5.9972353E-2,2.9871587E-3,5.0113583E-3,-2.470932E-2,8.516141E-2,2.305953E-2,-5.426044E-3,-3.1938415E-2,2.5010377E-3,-2.818725E-2,1.9820964E-2,-8.032935E-3,2.0443177E-2,-1.3718227E-2,1.79032E-2,8.353028E-2,3.5727084E-2,2.6083589E-3,1.8440945E-2,-1.5954316E-2,6.055368E-3,5.5418212E-2],"split_indices":[3,3,5,1,5,3,3,7,3,3,7,1,7,1,7,5,4,3,4,5,5,4,7,5,4,4,7,7,5,5,4,5,3,5,3,4,5,2,5,3,2,7,3,5,1,4,5,2,2,3,4,3,2,3,5,5,7,7,2,7,7,4,3,0,0,0,0,0,0,0,0,0,0,0,0,0,0,0,0,0,0,0,0,0,0,0,0,0,0,0,0,0,0,0,0,0,0,0,0,0,0,0,0,0,0,0,0,0,0,0,0,0,0,0,0,0,0,0,0,0,0,0,0,0,0,0,0],"split_type":[0,0,0,0,0,0,0,0,0,0,0,0,0,0,0,0,0,0,0,0,0,0,0,0,0,0,0,0,0,0,0,0,0,0,0,0,0,0,0,0,0,0,0,0,0,0,0,0,0,0,0,0,0,0,0,0,0,0,0,0,0,0,0,0,0,0,0,0,0,0,0,0,0,0,0,0,0,0,0,0,0,0,0,0,0,0,0,0,0,0,0,0,0,0,0,0,0,0,0,0,0,0,0,0,0,0,0,0,0,0,0,0,0,0,0,0,0,0,0,0,0,0,0,0,0,0,0],"sum_hessian":[5.352E3,4.313E3,1.039E3,1.282E3,3.031E3,4.43E2,5.96E2,3E2,9.82E2,2.543E3,4.88E2,3.72E2,7.1E1,4.11E2,1.85E2,2.37E2,6.3E1,3.55E2,6.27E2,1.884E3,6.59E2,9.3E1,3.95E2,2.84E2,8.8E1,4.7E1,2.4E1,2.13E2,1.98E2,1.04E2,8.1E1,2.06E2,3.1E1,3.5E1,2.8E1,8.3E1,2.72E2,8E0,6.19E2,1.33E3,5.54E2,2.26E2,4.33E2,8.4E1,9E0,9.5E1,3E2,1.87E2,9.7E1,6.3E1,2.5E1,3.2E1,1.5E1,1.4E1,1E1,7.1E1,1.42E2,9.9E1,9.9E1,5E1,5.4E1,4.5E1,3.6E1,1.65E2,4.1E1,2.8E1,3E0,4E0,3.1E1,1E1,1.8E1,6.7E1,1.6E1,2.43E2,2.9E1,3E0,5E0,5.51E2,6.8E1,7.23E2,6.07E2,3.09E2,2.45E2,2.9E1,1.97E2,3.45E2,8.8E1,5.1E1,3.3E1,5E0,4E0,3.6E1,5.9E1,6.9E1,2.31E2,9E1,9.7E1,9.2E1,5E0,4.7E1,1.6E1,6E0,1.9E1,1.6E1,1.6E1,8E0,7E0,5E0,9E0,7E0,3E0,1.5E1,5.6E1,1.15E2,2.7E1,8E1,1.9E1,2.3E1,7.6E1,1.6E1,3.4E1,2.8E1,2.6E1,9E0,3.6E1,2.6E1,1E1],"tree_param":{"num_deleted":"0","num_feature":"8","num_nodes":"127","size_leaf_vector":"1"}},{"base_weights":[-5.1317527E-4,-3.1255387E-2,1.1883559E-1,-1.2309513E-1,-6.6190804E-3,1.0755975E-1,5.386968E-1,-2.8913803E-2,-1.6151506E-1,-3.8331915E-2,4.644034E-2,9.828189E-2,5.3713655E-1,-9.705952E-3,7.599994E-1,3.2157862E-1,-4.310432E-2,-2.560864E-1,-1.3805448E-1,5.2822445E-2,-5.45251E-2,-1.9451659E-3,1.2302809E-1,7.423353E-2,2.5437924E-1,9.447814E-2,2.2956939E-1,4.1873685E-1,1.2497089E-1,4.1551888E-2,5.1788576E-3,-3.3372767E-2,-3.6465544E-2,-3.0444038E-1,-1.1049085E-1,-8.262525E-2,-1.8962793E-1,1.2843941E-1,-2.1546649E-2,1.027356E-2,-8.02665E-2,1.302741E-1,-4.3914925E-2,2.095557E-1,4.97492E-2,4.1190617E-2,1.96843E-1,1.1863192E-1,4.3784738E-1,-3.5540698E-4,3.7058845E-2,5.739114E-1,9.951877E-3,-6.0292035E-3,6.3904794E-3,-1.3347006E-2,-3.5172075E-2,-2.2662865E-2,7.7923345E-3,-1.3410769E-2,1.8907009E-3,-3.6864E-5,-2.251416E-2,2.3385344E-2,2.7952744E-3,-1.1109645E-2,6.482348E-3,1.874674E-3,-1.720579E-2,-1.0708951E-2,1.3591718E-3,6.1203167E-3,2.8134087E-2,-4.1566424E-2,-2.2776986E-3,3.4867262E-3,2.9480834E-2,-1.2063364E-3,2.1613915E-2,1.8614521E-2,8.433351E-4,2.9808953E-2,3.8402968E-3,6.140058E-2,6.2123504E-3,8.6425684E-2,3.2892343E-2,1.8674484E-2,7.1970396E-2],"categories":[],"categories_nodes":[],"categories_segments":[],"categories_sizes":[],"default_left":[0,0,0,0,0,0,0,0,0,0,0,0,0,0,0,0,0,0,0,0,0,0,0,0,0,0,0,0,0,0,0,0,0,0,0,0,0,0,0,0,0,0,0,0,0,0,0,0,0,0,0,0,0,0,0,0,0,0,0,0,0,0,0,0,0,0,0,0,0,0,0,0,0,0,0,0,0,0,0,0,0,0,0,0,0,0,0,0,0],"id":6,"left_children":[1,3,5,7,9,11,13,15,17,19,21,23,25,-1,27,29,31,33,35,37,39,41,43,45,47,-1,49,51,-1,-1,-1,53,-1,55,57,59,61,63,65,67,69,71,73,75,77,79,81,83,85,-1,-1,87,-1,-1,-1,-1,-1,-1,-1,-1,-1,-1,-1,-1,-1,-1,-1,-1,-1,-1,-1,-1,-1,-1,-1,-1,-1,-1,-1,-1,-1,-1,-1,-1,-1,-1,-1,-1,-1],"loss_changes":[1.9510607E1,9.559242E0,5.0330763E0,3.211172E0,5.6177044E0,4.1163235E0,4.079505E0,1.2841418E0,1.3318882E0,3.0895324E0,4.637108E0,3.8560495E0,2.4239907E0,0E0,2.8193655E0,1.8519151E-1,7.3658395E-1,7.9784393E-1,1.4178905E0,1.7848797E0,2.9718742E0,4.242232E0,3.032518E0,3.6305308E0,3.3293428E0,0E0,4.9826843E-1,5.6902575E-1,0E0,0E0,0E0,6.476773E-1,0E0,6.482229E-1,7.5463647E-1,1.3156104E0,1.7450647E0,1.630337E0,1.2416029E0,7.6808256E-1,3.21566E0,1.8684418E0,4.520053E0,3.2480278E0,2.7382517E0,3.3692698E0,3.0188303E0,2.1616592E0,2.290287E0,0E0,0E0,2.8296804E-1,0E0,0E0,0E0,0E0,0E0,0E0,0E0,0E0,0E0,0E0,0E0,0E0,0E0,0E0,0E0,0E0,0E0,0E0,0E0,0E0,0E0,0E0,0E0,0E0,0E0,0E0,0E0,0E0,0E0,0E0,0E0,0E0,0E0,0E0,0E0,0E0,0E0],"parents":[2147483647,0,0,1,1,2,2,3,3,4,4,5,5,6,6,7,7,8,8,9,9,10,10,11,11,12,12,14,14,15,15,16,16,17,17,18,18,19,19,20,20,21,21,22,22,23,23,24,24,26,26,27,27,31,31,33,33,34,34,35,35,36,36,37,37,38,38,39,39,40,40,41,41,42,42,43,43,44,44,45,45,46,46,47,47,48,48,51,51],"right_children":[2,4,6,8,10,12,14,16,18,20,22,24,26,-1,28,30,32,34,36,38,40,42,44,46,48,-1,50,52,-1,-1,-1,54,-1,56,58,60,62,64,66,68,70,72,74,76,78,80,82,84,86,-1,-1,88,-1,-1,-1,-1,-1,-1,-1,-1,-1,-1,-1,-1,-1,-1,-1,-1,-1,-1,-1,-1,-1,-1,-1,-1,-1,-1,-1,-1,-1,-1,-1,-1,-1,-1,-1,-1,-1],"split_conditions":[1.3843573E2,5.86766E1,3.995E3,5.562924E0,2.968902E0,3.5305237E2,1.4632933E2,-5.0763254E0,3.412E3,1E0,3.583E3,1.9949545E1,2.779E3,-9.705952E-3,1.870284E2,5E0,1.7881207E1,5.1943813E1,1.00213974E2,-1.8755571E0,5.232388E0,2.3420186E0,4E0,3.0020243E1,1.7888914E2,9.447814E-2,1.597766E2,2.1663757E1,1.2497089E-1,4.1551888E-2,5.1788576E-3,5.150771E1,-3.6465544E-2,3.055E3,1.1268787E2,4.8304646E1,-2.698035E0,1.736621E1,1.870284E2,3.657E3,3.789E3,1.06125244E2,2.813E3,1.9375284E1,1.22441E2,3.1140814E0,3.5276203E1,2.0748964E1,4.4339604E0,-3.5540698E-4,3.7058845E-2,-2.6176655E0,9.951877E-3,-6.0292035E-3,6.3904794E-3,-1.3347006E-2,-3.5172075E-2,-2.2662865E-2,7.7923345E-3,-1.3410769E-2,1.8907009E-3,-3.6864E-5,-2.251416E-2,2.3385344E-2,2.7952744E-3,-1.1109645E-2,6.482348E-3,1.874674E-3,-1.720579E-2,-1.0708951E-2,1.3591718E-3,6.1203167E-3,2.8134087E-2,-4.1566424E-2,-2.2776986E-3,3.4867262E-3,2.9480834E-2,-1.2063364E-3,2.1613915E-2,1.8614521E-2,8.433351E-4,2.9808953E-2,3.8402968E-3,6.140058E-2,6.2123504E-3,8.6425684E-2,3.2892343E-2,1.8674484E-2,7.1970396E-2],"split_indices":[3,3,0,1,4,2,3,4,0,7,0,4,0,0,2,7,4,3,2,4,1,1,7,1,3,0,3,1,0,0,0,3,0,0,2,3,4,1,2,0,0,3,0,1,3,1,1,4,1,0,0,4,0,0,0,0,0,0,0,0,0,0,0,0,0,0,0,0,0,0,0,0,0,0,0,0,0,0,0,0,0,0,0,0,0,0,0,0,0],"split_type":[0,0,0,0,0,0,0,0,0,0,0,0,0,0,0,0,0,0,0,0,0,0,0,0,0,0,0,0,0,0,0,0,0,0,0,0,0,0,0,0,0,0,0,0,0,0,0,0,0,0,0,0,0,0,0,0,0,0,0,0,0,0,0,0,0,0,0,0,0,0,0,0,0,0,0,0,0,0,0,0,0,0,0,0,0,0,0,0,0],"sum_hessian":[5.318E3,4.23E3,1.088E3,8.93E2,3.337E3,1.061E3,2.7E1,2.6E2,6.33E2,2.09E3,1.247E3,1.04E3,2.1E1,7E0,2E1,9E0,2.51E2,1.23E2,5.1E2,3.14E2,1.776E3,7.64E2,4.83E2,9.03E2,1.37E2,8E0,1.3E1,1.3E1,7E0,6E0,3E0,2.45E2,6E0,9.1E1,3.2E1,2.48E2,2.62E2,1.56E2,1.58E2,5.04E2,1.272E3,1.83E2,5.81E2,2.2E2,2.63E2,7.13E2,1.9E2,8E1,5.7E1,5E0,8E0,8E0,5E0,1.93E2,5.2E1,2.1E1,7E1,2E1,1.2E1,1.65E2,8.3E1,4.2E1,2.2E2,7.5E1,8.1E1,7.8E1,8E1,4.83E2,2.1E1,9.9E2,2.82E2,1.27E2,5.6E1,3E1,5.51E2,7.3E1,1.47E2,1.92E2,7.1E1,1.3E2,5.83E2,1.15E2,7.5E1,7E0,7.3E1,1E1,4.7E1,3E0,5E0],"tree_param":{"num_deleted":"0","num_feature":"8","num_nodes":"89","size_leaf_vector":"1"}},{"base_weights":[1.1387767E-3,-7.742014E-2,2.9264303E-2,1.6818197E-2,-9.708905E-2,1.14395E-2,1.4414543E-1,5.07589E-2,-1.3710998E-1,-1.5530705E-1,-7.620399E-2,2.9969243E-2,-7.114072E-2,1.6697519E-2,1.9671237E-1,-8.693792E-2,1.2681548E-1,-4.9868684E-2,-9.605101E-2,-7.893931E-2,-2.4217235E-1,-1.4359927E-1,-4.8852973E-2,2.1686275E-2,2.3791888E-1,-1.3768646E-1,3.1244818E-2,-1.7132872E-1,9.706271E-2,1.5004648E-1,4.007179E-1,-0E0,-2.8520742E-1,6.2041953E-2,2.65049E-1,1.1050968E-1,-1.6947412E-1,-9.075686E-2,3.9736066E-2,-3.6493254E-1,-1.7916305E-1,-1.0196796E-1,-2.6330495E-1,-2.1967005E-2,-1.1598594E-1,3.4703307E-2,-8.23191E-2,8.2344145E-2,4.1834727E-1,-3.453566E-2,-1.988414E-1,3.2797712E-1,-6.039116E-3,5.5007845E-2,-2.5355446E-1,3.3168728E-3,1.7502472E-1,1.3366327E-1,6.683707E-1,4.599413E-2,4.5149326E-1,4.597518E-3,-1.9159244E-2,-7.659448E-3,-3.2175507E-2,4.3241736E-2,1.9928457E-3,3.6668625E-2,-3.638761E-3,3.164402E-2,-3.8084935E-3,-2.1144649E-2,7.1071396E-3,-7.215476E-3,-2.9215384E-2,-1.234036E-2,-3.9482936E-2,-2.0667315E-3,-2.5177974E-2,-5.3107413E-3,-2.1644952E-2,-1.9443741E-2,-3.9664824E-2,-4.1633616E-3,2.4814224E-2,-2.8658366E-2,-6.459985E-3,1.9538798E-3,2.202061E-2,-2.7054457E-3,-1.9493548E-2,3.2026652E-4,4.183067E-2,5.256737E-2,1.3336253E-2,1.1336125E-2,-1.1070664E-2,-2.874121E-2,-9.321559E-3,4.8952296E-2,2.4722384E-3,-6.4163357E-3,2.0838177E-2,-3.3171088E-2,1.1734368E-2,2.8764565E-2,-6.8848208E-3,3.933261E-3,3.0607242E-2,9.888025E-3,3.6824938E-2,8.422726E-2,2.1542532E-2,2.1081058E-2,-2.2893319E-2,6.809265E-2,3.899881E-2],"categories":[],"categories_nodes":[],"categories_segments":[],"categories_sizes":[],"default_left":[0,0,0,0,0,0,0,0,0,0,0,0,0,0,0,0,0,0,0,0,0,0,0,0,0,0,0,0,0,0,0,0,0,0,0,0,0,0,0,0,0,0,0,0,0,0,0,0,0,0,0,0,0,0,0,0,0,0,0,0,0,0,0,0,0,0,0,0,0,0,0,0,0,0,0,0,0,0,0,0,0,0,0,0,0,0,0,0,0,0,0,0,0,0,0,0,0,0,0,0,0,0,0,0,0,0,0,0,0,0,0,0,0,0,0,0,0],"id":7,"left_children":[1,3,5,7,9,11,13,15,17,19,21,23,25,27,29,31,33,-1,35,37,39,41,43,45,47,49,51,53,55,57,59,61,63,65,67,69,71,73,-1,75,77,79,81,83,85,87,89,91,93,95,97,99,101,-1,103,105,107,109,111,113,115,-1,-1,-1,-1,-1,-1,-1,-1,-1,-1,-1,-1,-1,-1,-1,-1,-1,-1,-1,-1,-1,-1,-1,-1,-1,-1,-1,-1,-1,-1,-1,-1,-1,-1,-1,-1,-1,-1,-1,-1,-1,-1,-1,-1,-1,-1,-1,-1,-1,-1,-1,-1,-1,-1,-1,-1],"loss_changes":[1.1895665E1,2.6398706E0,8.10615E0,1.2783098E0,1.3936806E0,5.2557487E0,3.5395346E0,2.1305084E0,5.4584956E-1,1.9919534E0,1.5737495E0,4.8054924E0,4.300526E0,2.381593E0,3.4643555E0,1.2453616E0,1.1238039E0,0E0,6.4644444E-1,9.3976676E-1,9.863186E-1,1.1775165E0,1.1027162E0,3.6561747E0,2.918983E0,2.3795195E0,2.7778847E0,2.89778E0,7.9284143E-1,2.4459395E0,1.1722593E0,4.558528E-1,1.0325527E-1,1.3655481E0,1.3024974E0,3.7648892E-1,3.4204936E-1,5.5315316E-1,0E0,2.3883772E-1,1.0839667E0,1.0075586E0,4.422984E-1,2.3535795E0,1.4892461E0,6.7315035E0,1.8396387E0,1.5252353E0,1.3627243E0,1.6345093E0,2.1710749E0,1.3081803E0,2.7532828E0,0E0,1.306848E0,1.1086512E0,1.020349E0,2.364759E0,4.216957E-1,4.995747E-1,4.7403526E-1,0E0,0E0,0E0,0E0,0E0,0E0,0E0,0E0,0E0,0E0,0E0,0E0,0E0,0E0,0E0,0E0,0E0,0E0,0E0,0E0,0E0,0E0,0E0,0E0,0E0,0E0,0E0,0E0,0E0,0E0,0E0,0E0,0E0,0E0,0E0,0E0,0E0,0E0,0E0,0E0,0E0,0E0,0E0,0E0,0E0,0E0,0E0,0E0,0E0,0E0,0E0,0E0,0E0,0E0,0E0,0E0],"parents":[2147483647,0,0,1,1,2,2,3,3,4,4,5,5,6,6,7,7,8,8,9,9,10,10,11,11,12,12,13,13,14,14,15,15,16,16,18,18,19,19,20,20,21,21,22,22,23,23,24,24,25,25,26,26,27,27,28,28,29,29,30,30,31,31,32,32,33,33,34,34,35,35,36,36,37,37,39,39,40,40,41,41,42,42,43,43,44,44,45,45,46,46,47,47,48,48,49,49,50,50,51,51,52,52,54,54,55,55,56,56,57,57,58,58,59,59,60,60],"right_children":[2,4,6,8,10,12,14,16,18,20,22,24,26,28,30,32,34,-1,36,38,40,42,44,46,48,50,52,54,56,58,60,62,64,66,68,70,72,74,-1,76,78,80,82,84,86,88,90,92,94,96,98,100,102,-1,104,106,108,110,112,114,116,-1,-1,-1,-1,-1,-1,-1,-1,-1,-1,-1,-1,-1,-1,-1,-1,-1,-1,-1,-1,-1,-1,-1,-1,-1,-1,-1,-1,-1,-1,-1,-1,-1,-1,-1,-1,-1,-1,-1,-1,-1,-1,-1,-1,-1,-1,-1,-1,-1,-1,-1,-1,-1,-1,-1,-1],"split_conditions":[7.1660416E1,6.970338E-1,1.524E1,1.6353771E1,3.407E3,8E0,9.822689E1,4.316378E1,1.7129929E1,1.3172197E1,1.826172E1,2.0019661E2,3.596E3,1.4745725E1,2.8859484E1,4E0,3.5474226E0,-4.9868684E-2,1.9210358E1,1.2889239E1,9.830633E0,1.5977072E1,4.5145125E0,4.78082E1,-1.1366243E0,4.278059E0,1.8343805E1,2.389E3,2.369155E1,2.730885E2,1.08168564E2,2.7433658E0,2.5769264E1,-4.011632E0,8E0,5.885873E1,2.4712833E1,3.372E3,3.9736066E-2,-1.3862329E0,5.6594913E1,3.713E3,2.5606341E0,3.5474226E0,4.1848415E1,1.541008E2,-1.2134559E0,2.9771797E1,5E0,2.550846E1,3.318E3,8.21482E1,1.3497563E2,5.5007845E-2,1.8474022E1,1.56936035E1,1.433459E1,3.8815308E1,2.5478857E1,1.0383965E2,3.0313349E1,4.597518E-3,-1.9159244E-2,-7.659448E-3,-3.2175507E-2,4.3241736E-2,1.9928457E-3,3.6668625E-2,-3.638761E-3,3.164402E-2,-3.8084935E-3,-2.1144649E-2,7.1071396E-3,-7.215476E-3,-2.9215384E-2,-1.234036E-2,-3.9482936E-2,-2.0667315E-3,-2.5177974E-2,-5.3107413E-3,-2.1644952E-2,-1.9443741E-2,-3.9664824E-2,-4.1633616E-3,2.4814224E-2,-2.8658366E-2,-6.459985E-3,1.9538798E-3,2.202061E-2,-2.7054457E-3,-1.9493548E-2,3.2026652E-4,4.183067E-2,5.256737E-2,1.3336253E-2,1.1336125E-2,-1.1070664E-2,-2.874121E-2,-9.321559E-3,4.8952296E-2,2.4722384E-3,-6.4163357E-3,2.0838177E-2,-3.3171088E-2,1.1734368E-2,2.8764565E-2,-6.8848208E-3,3.933261E-3,3.0607242E-2,9.888025E-3,3.6824938E-2,8.422726E-2,2.1542532E-2,2.1081058E-2,-2.2893319E-2,6.809265E-2,3.899881E-2],"split_indices":[3,1,4,5,0,7,3,3,5,1,1,3,0,1,1,7,4,0,5,1,5,1,4,5,4,1,5,0,4,3,3,4,3,4,7,3,5,0,0,4,3,0,4,4,3,3,4,1,7,5,0,3,3,0,5,5,5,4,4,3,1,0,0,0,0,0,0,0,0,0,0,0,0,0,0,0,0,0,0,0,0,0,0,0,0,0,0,0,0,0,0,0,0,0,0,0,0,0,0,0,0,0,0,0,0,0,0,0,0,0,0,0,0,0,0,0,0],"split_type":[0,0,0,0,0,0,0,0,0,0,0,0,0,0,0,0,0,0,0,0,0,0,0,0,0,0,0,0,0,0,0,0,0,0,0,0,0,0,0,0,0,0,0,0,0,0,0,0,0,0,0,0,0,0,0,0,0,0,0,0,0,0,0,0,0,0,0,0,0,0,0,0,0,0,0,0,0,0,0,0,0,0,0,0,0,0,0,0,0,0,0,0,0,0,0,0,0,0,0,0,0,0,0,0,0,0,0,0,0,0,0,0,0,0,0,0,0],"sum_hessian":[5.384E3,1.418E3,3.966E3,2.44E2,1.174E3,3.435E3,5.31E2,2.01E2,4.3E1,3.07E2,8.67E2,2.807E3,6.28E2,1.56E2,3.75E2,7.1E1,1.3E2,3E0,4E1,1.65E2,1.42E2,2.48E2,6.19E2,2.701E3,1.06E2,3.81E2,2.47E2,4.6E1,1.1E2,3.07E2,6.8E1,5E1,2.1E1,9E1,4E1,1E1,3E1,1.62E2,3E0,4.6E1,9.6E1,1.86E2,6.2E1,4.44E2,1.75E2,2.402E3,2.99E2,5.8E1,4.8E1,1.43E2,2.38E2,2.7E1,2.2E2,4E0,4.2E1,5.1E1,5.9E1,2.99E2,8E0,9E0,5.9E1,4.1E1,9E0,4E0,1.7E1,8E0,8.2E1,3E1,1E1,4E0,6E0,2.6E1,4E0,1.5E2,1.2E1,6E0,4E1,3.1E1,6.5E1,1.32E2,5.4E1,4.3E1,1.9E1,4.15E2,2.9E1,3.9E1,1.36E2,2.222E3,1.8E2,2.02E2,9.7E1,4.8E1,1E1,3.4E1,1.4E1,4.8E1,9.5E1,1.28E2,1.1E2,1.7E1,1E1,1.74E2,4.6E1,3.5E1,7E0,1E1,4.1E1,3E1,2.9E1,2.62E2,3.7E1,5E0,3E0,6E0,3E0,1E1,4.9E1],"tree_param":{"num_deleted":"0","num_feature":"8","num_nodes":"117","size_leaf_vector":"1"}},{"base_weights":[2.307952E-3,-2.2952633E-2,1.0379571E-1,-1.2290206E-1,-6.7566587E-3,2.8879634E-1,5.9502155E-2,-1.3545062E-1,1.2453177E-1,2.0077074E-2,-8.898025E-2,2.3431791E-1,7.787298E-1,-2.7541604E-2,1.5960577E-1,-6.1749365E-2,-1.6044739E-1,-1.1310118E-1,2.8159085E-1,-6.8993927E-3,1.1718181E-1,4.001373E-2,-1.1602543E-1,7.758255E-1,2.0522359E-1,9.710796E-1,3.5632008E-1,-3.8998995E-2,4.8537803E-1,3.4596896E-1,7.5179234E-2,-9.174338E-2,3.48343E-2,-2.1195404E-2,-1.7748624E-1,6.8652453E-3,-2.6701842E-2,3.6306763E-1,4.1459366E-3,1.1720807E-2,-1.4144084E-1,1.6203915E-1,-9.065013E-2,-8.761454E-2,1.2439464E-1,-7.570659E-2,-1.7075282E-1,1.3626004E-2,1.2402258E-1,1.7022832E-1,7.151306E-2,4.3913055E-2,1.147598E-1,5.013469E-2,6.0956515E-3,2.8281373E-1,-5.1628713E-2,6.703124E-1,1.53983E-3,2.9473597E-1,7.23978E-1,2.551491E-1,4.8186956E-3,-4.9664443E-3,-2.759536E-2,-3.463866E-2,8.214215E-3,-2.589931E-2,-1.4212439E-2,4.561863E-2,1.4504021E-3,-4.6626767E-4,1.1891301E-2,-2.0694125E-2,-5.794922E-3,1.7239776E-2,-9.018719E-3,-3.5016805E-2,-4.062345E-3,1.3409125E-3,-3.464742E-2,-9.376413E-4,2.178411E-2,-2.2378126E-2,-3.5281521E-3,-4.6710648E-2,-1.4572488E-2,2.9781997E-2,9.8176235E-3,6.4372376E-2,1.8342466E-3,-9.192272E-3,4.80828E-3,2.5946045E-2,8.885863E-2,3.884675E-2,-6.0965866E-3,8.201745E-2,2.5344307E-2,-8.165869E-3,3.666916E-2,5.1733586E-3,-1.963859E-2],"categories":[],"categories_nodes":[],"categories_segments":[],"categories_sizes":[],"default_left":[0,0,0,0,0,0,0,0,0,0,0,0,0,0,0,0,0,0,0,0,0,0,0,0,0,0,0,0,0,0,0,0,0,0,0,0,0,0,0,0,0,0,0,0,0,0,0,0,0,0,0,0,0,0,0,0,0,0,0,0,0,0,0,0,0,0,0,0,0,0,0,0,0,0,0,0,0,0,0,0,0,0,0,0,0,0,0,0,0,0,0,0,0,0,0,0,0,0,0,0,0,0,0],"id":8,"left_children":[1,3,5,7,9,11,13,15,17,19,21,23,25,27,29,31,33,35,37,39,41,43,45,47,49,51,53,55,57,59,61,63,-1,65,67,-1,-1,69,-1,71,73,75,77,79,81,83,85,-1,-1,87,-1,-1,-1,-1,-1,89,91,93,-1,95,97,99,101,-1,-1,-1,-1,-1,-1,-1,-1,-1,-1,-1,-1,-1,-1,-1,-1,-1,-1,-1,-1,-1,-1,-1,-1,-1,-1,-1,-1,-1,-1,-1,-1,-1,-1,-1,-1,-1,-1,-1,-1],"loss_changes":[1.3761831E1,6.9388556E0,8.715926E0,1.874713E0,8.167818E0,5.214529E0,7.5546885E0,1.0179806E0,1.1310472E0,7.3151207E0,3.1904182E0,2.6888256E0,1.1462536E0,2.6952126E0,6.2726774E0,1.8144447E0,9.8239136E-1,3.7386823E-1,2.9666722E-1,5.4809513E0,5.6807604E0,1.7161403E0,1.6261616E0,2.366488E0,2.9838638E0,5.5806637E-1,2.5589454E-1,1.8367224E0,7.902615E-1,2.1055622E0,3.5056882E0,1.0234222E0,0E0,1.6678915E0,1.0096817E0,0E0,0E0,3.682655E-1,0E0,3.3785799E0,1.4162025E0,1.3301258E0,1.3488405E0,1.6854622E0,1.2229304E0,2.5820491E0,2.229292E0,0E0,0E0,1.4848204E0,0E0,0E0,0E0,0E0,0E0,1.5446415E0,1.7685897E0,2.8239012E-1,0E0,3.7905674E0,3.1846428E-1,2.98878E0,1.9024717E0,0E0,0E0,0E0,0E0,0E0,0E0,0E0,0E0,0E0,0E0,0E0,0E0,0E0,0E0,0E0,0E0,0E0,0E0,0E0,0E0,0E0,0E0,0E0,0E0,0E0,0E0,0E0,0E0,0E0,0E0,0E0,0E0,0E0,0E0,0E0,0E0,0E0,0E0,0E0,0E0],"parents":[2147483647,0,0,1,1,2,2,3,3,4,4,5,5,6,6,7,7,8,8,9,9,10,10,11,11,12,12,13,13,14,14,15,15,16,16,17,17,18,18,19,19,20,20,21,21,22,22,23,23,24,24,25,25,26,26,27,27,28,28,29,29,30,30,31,31,33,33,34,34,37,37,39,39,40,40,41,41,42,42,43,43,44,44,45,45,46,46,49,49,55,55,56,56,57,57,59,59,60,60,61,61,62,62],"right_children":[2,4,6,8,10,12,14,16,18,20,22,24,26,28,30,32,34,36,38,40,42,44,46,48,50,52,54,56,58,60,62,64,-1,66,68,-1,-1,70,-1,72,74,76,78,80,82,84,86,-1,-1,88,-1,-1,-1,-1,-1,90,92,94,-1,96,98,100,102,-1,-1,-1,-1,-1,-1,-1,-1,-1,-1,-1,-1,-1,-1,-1,-1,-1,-1,-1,-1,-1,-1,-1,-1,-1,-1,-1,-1,-1,-1,-1,-1,-1,-1,-1,-1,-1,-1,-1,-1],"split_conditions":[1.3946288E2,1.0395167E1,3.7086227E1,2.9501882E0,3.0427782E1,3.827E3,1.705103E2,-1.3181938E1,2E0,1.0470365E2,1E0,7.031802E0,8E0,3.5735745E2,4.9503605E1,-1.3562513E1,2.539E3,1E0,5E0,2.4192186E1,8E0,1.20755104E2,3.62519E1,3.1603615E0,3.555559E2,3.3548607E1,3.927E3,-1.9533808E1,4.2717518E1,9E0,1E0,5.270337E1,3.48343E-2,4.80244E0,3.412E3,6.8652453E-3,-2.6701842E-2,4.80244E0,4.1459366E-3,3.793E3,2.591597E2,-3.585321E0,6.0300846E1,3.586E3,3.473E3,1.0470365E2,3.6641304E1,1.3626004E-2,1.2402258E-1,3.207091E1,7.151306E-2,4.3913055E-2,1.147598E-1,5.013469E-2,6.0956515E-3,4E0,2.186598E2,-1.1663828E1,1.53983E-3,5E0,4.6410034E1,-1.2518504E1,8E0,-4.9664443E-3,-2.759536E-2,-3.463866E-2,8.214215E-3,-2.589931E-2,-1.4212439E-2,4.561863E-2,1.4504021E-3,-4.6626767E-4,1.1891301E-2,-2.0694125E-2,-5.794922E-3,1.7239776E-2,-9.018719E-3,-3.5016805E-2,-4.062345E-3,1.3409125E-3,-3.464742E-2,-9.376413E-4,2.178411E-2,-2.2378126E-2,-3.5281521E-3,-4.6710648E-2,-1.4572488E-2,2.9781997E-2,9.8176235E-3,6.4372376E-2,1.8342466E-3,-9.192272E-3,4.80828E-3,2.5946045E-2,8.885863E-2,3.884675E-2,-6.0965866E-3,8.201745E-2,2.5344307E-2,-8.165869E-3,3.666916E-2,5.1733586E-3,-1.963859E-2],"split_indices":[3,5,5,6,5,0,3,6,7,3,7,2,7,2,5,6,0,7,7,5,7,3,5,2,2,5,0,6,5,7,7,3,0,5,0,0,0,5,0,0,2,6,2,0,0,3,5,0,0,5,0,0,0,0,0,7,2,6,0,7,5,6,7,0,0,0,0,0,0,0,0,0,0,0,0,0,0,0,0,0,0,0,0,0,0,0,0,0,0,0,0,0,0,0,0,0,0,0,0,0,0,0,0],"split_type":[0,0,0,0,0,0,0,0,0,0,0,0,0,0,0,0,0,0,0,0,0,0,0,0,0,0,0,0,0,0,0,0,0,0,0,0,0,0,0,0,0,0,0,0,0,0,0,0,0,0,0,0,0,0,0,0,0,0,0,0,0,0,0,0,0,0,0,0,0,0,0,0,0,0,0,0,0,0,0,0,0,0,0,0,0,0,0,0,0,0,0,0,0,0,0,0,0,0,0,0,0,0,0],"sum_hessian":[5.363E3,4.294E3,1.069E3,5.97E2,3.697E3,2.05E2,8.64E2,5.69E2,2.8E1,2.787E3,9.1E2,1.86E2,1.9E1,4.62E2,4.02E2,1.46E2,4.23E2,1.1E1,1.7E1,2.181E3,6.06E2,1.57E2,7.53E2,8E0,1.78E2,1.2E1,7E0,4.53E2,9E0,1.24E2,2.78E2,1.37E2,9E0,4.7E1,3.76E2,5E0,6E0,1.2E1,5E0,1.916E3,2.65E2,4.99E2,1.07E2,6.2E1,9.5E1,4.36E2,3.17E2,4E0,4E0,1.68E2,1E1,4E0,8E0,4E0,3E0,1.6E1,4.37E2,6E0,3E0,1.11E2,1.3E1,7.7E1,2.01E2,1.13E2,2.4E1,1.1E1,3.6E1,1.11E2,2.65E2,9E0,3E0,1.662E3,2.54E2,1.47E2,1.18E2,4.8E2,1.9E1,1.6E1,9.1E1,4.5E1,1.7E1,3.9E1,5.6E1,9.2E1,3.44E2,2.3E1,2.94E2,5.9E1,1.09E2,6E0,1E1,3.12E2,1.25E2,3E0,3E0,8.8E1,2.3E1,1E1,3E0,1.9E1,5.8E1,1.64E2,3.7E1],"tree_param":{"num_deleted":"0","num_feature":"8","num_nodes":"103","size_leaf_vector":"1"}},{"base_weights":[-8.082784E-4,-4.6648E-2,5.4591637E-2,-2.8610911E-2,-1.4742395E-1,7.856436E-2,-5.745465E-2,-8.068174E-2,2.0294022E-2,-7.263808E-2,-2.0175038E-1,3.1069169E-2,1.4466318E-1,5.262805E-2,-6.442223E-2,-1.0980942E-2,-1.02683544E-1,1.4953017E-2,3.37315E-1,-8.4644616E-2,4.81827E-2,-2.0968583E-1,2.2013318E-2,1.6283306E-1,1.0688639E-2,1.2266775E-1,3.4747645E-1,-4.289048E-2,-2.267293E-1,-3.580324E-2,1.0554454E-1,-1.11181326E-1,1.0041707E-1,2.8079653E-1,9.957545E-3,-0E0,4.661684E-2,-1.0249979E-1,2.687689E-1,-3.0150667E-1,-1.7712678E-1,3.5925788E-1,7.3922746E-2,7.843262E-2,-3.9674893E-2,7.335732E-2,2.448041E-1,5.4583067E-1,1.9765314E-1,-7.436657E-2,3.203285E-1,-2.6671833E-1,-3.410032E-2,-1.9393137E-2,-4.1320236E-4,1.7775856E-2,-1.6412085E-2,2.9241418E-2,-1.1438632E-2,-8.357712E-5,2.0164797E-2,-2.2280106E-2,3.7247624E-2,-7.753501E-3,3.262704E-3,-1.2435303E-2,1.4712527E-2,-7.026162E-3,-3.3694595E-2,4.0597364E-2,-0E0,-2.3747638E-2,-4.5868006E-2,8.771624E-4,-1.9841826E-2,5.473567E-2,1.0753393E-2,4.6240375E-4,2.2371037E-2,5.786573E-3,4.0859234E-2,-9.240001E-3,6.821999E-3,1.1732055E-2,-9.558473E-3,2.6326481E-2,-1.5365868E-2,2.2886338E-2,8.43453E-2,3.4836657E-2,-9.178695E-3,-5.5037024E-3,-2.7409187E-2,-3.1940624E-2,4.650517E-2,-1.4587089E-2,-4.007612E-2,1.0423287E-2,-1.6036127E-2],"categories":[],"categories_nodes":[],"categories_segments":[],"categories_sizes":[],"default_left":[0,0,0,0,0,0,0,0,0,0,0,0,0,0,0,0,0,0,0,0,0,0,0,0,0,0,0,0,0,0,0,0,0,0,0,0,0,0,0,0,0,0,0,0,0,0,0,0,0,0,0,0,0,0,0,0,0,0,0,0,0,0,0,0,0,0,0,0,0,0,0,0,0,0,0,0,0,0,0,0,0,0,0,0,0,0,0,0,0,0,0,0,0,0,0,0,0,0,0],"id":9,"left_children":[1,3,5,7,9,11,13,15,17,19,21,23,25,-1,27,29,31,33,35,37,-1,39,-1,41,43,45,47,49,51,53,55,57,59,61,63,65,-1,67,69,71,73,75,77,79,81,83,85,87,89,91,93,95,97,-1,-1,-1,-1,-1,-1,-1,-1,-1,-1,-1,-1,-1,-1,-1,-1,-1,-1,-1,-1,-1,-1,-1,-1,-1,-1,-1,-1,-1,-1,-1,-1,-1,-1,-1,-1,-1,-1,-1,-1,-1,-1,-1,-1,-1,-1],"loss_changes":[1.3661812E1,5.3313203E0,6.547169E0,6.373977E0,1.7699366E0,6.278661E0,1.7325563E0,1.8461595E0,2.1422775E0,1.2659346E0,9.0550804E-1,3.1228461E0,3.6486492E0,0E0,1.4485844E0,8.4428686E-1,1.6000738E0,1.6533779E0,8.7028503E-1,1.1909409E0,0E0,6.5509987E-1,0E0,2.6545386E0,3.469991E0,4.515353E0,2.2249317E0,4.3093586E0,3.3827186E-1,1.1963632E0,1.0236924E0,1.1591187E0,3.9949667E-1,1.159858E0,2.4713535E0,1.484381E-1,0E0,1.2885072E0,3.387571E-1,4.6554565E-1,7.7273464E-1,2.1484032E0,1.1075618E0,2.8767262E0,3.3195863E0,4.038951E0,1.647644E0,2.907176E0,2.1515136E0,1.2954906E0,2.9406388E0,5.3482723E-1,1.9698852E-1,0E0,0E0,0E0,0E0,0E0,0E0,0E0,0E0,0E0,0E0,0E0,0E0,0E0,0E0,0E0,0E0,0E0,0E0,0E0,0E0,0E0,0E0,0E0,0E0,0E0,0E0,0E0,0E0,0E0,0E0,0E0,0E0,0E0,0E0,0E0,0E0,0E0,0E0,0E0,0E0,0E0,0E0,0E0,0E0,0E0,0E0],"parents":[2147483647,0,0,1,1,2,2,3,3,4,4,5,5,6,6,7,7,8,8,9,9,10,10,11,11,12,12,14,14,15,15,16,16,17,17,18,18,19,19,21,21,23,23,24,24,25,25,26,26,27,27,28,28,29,29,30,30,31,31,32,32,33,33,34,34,35,35,37,37,38,38,39,39,40,40,41,41,42,42,43,43,44,44,45,45,46,46,47,47,48,48,49,49,50,50,51,51,52,52],"right_children":[2,4,6,8,10,12,14,16,18,20,22,24,26,-1,28,30,32,34,36,38,-1,40,-1,42,44,46,48,50,52,54,56,58,60,62,64,66,-1,68,70,72,74,76,78,80,82,84,86,88,90,92,94,96,98,-1,-1,-1,-1,-1,-1,-1,-1,-1,-1,-1,-1,-1,-1,-1,-1,-1,-1,-1,-1,-1,-1,-1,-1,-1,-1,-1,-1,-1,-1,-1,-1,-1,-1,-1,-1,-1,-1,-1,-1,-1,-1,-1,-1,-1,-1],"split_conditions":[1.0526277E2,2.4192186E1,8E0,6.6985115E1,1.1007003E1,3.422019E0,-2.2906359E1,2.5566144E0,4.7651722E1,4.1167526E1,1.9949545E1,3.1140814E0,1.9489348E2,5.262805E-2,5.209886E1,-2.7404969E0,2.4029796E0,-2.4079185E1,1.5463372E1,1.0383965E2,4.81827E-2,-7.3609767E0,2.2013318E-2,-4.4506493E0,3.62519E1,2.7070148E1,8.691515E0,1.6314467E2,6.408886E0,3.21533E1,5.7562447E1,-7.486912E0,2E0,7.86168E1,-1.747134E1,1.6110622E1,4.661684E-2,4.75751E0,-8.374794E0,-9.224977E0,2.550846E1,7E0,-5.13958E-2,1.4482446E2,1.643204E2,4.3023693E1,5.1270504E1,1.1190623E0,-9.423692E0,3.377162E1,-1.5385459E1,-2.5219977E0,1.0329173E1,-1.9393137E-2,-4.1320236E-4,1.7775856E-2,-1.6412085E-2,2.9241418E-2,-1.1438632E-2,-8.357712E-5,2.0164797E-2,-2.2280106E-2,3.7247624E-2,-7.753501E-3,3.262704E-3,-1.2435303E-2,1.4712527E-2,-7.026162E-3,-3.3694595E-2,4.0597364E-2,-0E0,-2.3747638E-2,-4.5868006E-2,8.771624E-4,-1.9841826E-2,5.473567E-2,1.0753393E-2,4.6240375E-4,2.2371037E-2,5.786573E-3,4.0859234E-2,-9.240001E-3,6.821999E-3,1.1732055E-2,-9.558473E-3,2.6326481E-2,-1.5365868E-2,2.2886338E-2,8.43453E-2,3.4836657E-2,-9.178695E-3,-5.5037024E-3,-2.7409187E-2,-3.1940624E-2,4.650517E-2,-1.4587089E-2,-4.007612E-2,1.0423287E-2,-1.6036127E-2],"split_indices":[3,5,7,3,1,4,6,1,4,5,4,1,3,0,5,6,6,6,5,3,0,6,0,4,5,1,1,3,4,3,3,4,7,3,6,1,0,4,6,6,5,7,4,3,3,5,5,1,6,1,6,4,4,0,0,0,0,0,0,0,0,0,0,0,0,0,0,0,0,0,0,0,0,0,0,0,0,0,0,0,0,0,0,0,0,0,0,0,0,0,0,0,0,0,0,0,0,0,0],"split_type":[0,0,0,0,0,0,0,0,0,0,0,0,0,0,0,0,0,0,0,0,0,0,0,0,0,0,0,0,0,0,0,0,0,0,0,0,0,0,0,0,0,0,0,0,0,0,0,0,0,0,0,0,0,0,0,0,0,0,0,0,0,0,0,0,0,0,0,0,0,0,0,0,0,0,0,0,0,0,0,0,0,0,0,0,0,0,0,0,0,0,0,0,0,0,0,0,0,0,0],"sum_hessian":[5.378E3,2.944E3,2.434E3,2.499E3,4.45E2,2.006E3,4.28E2,1.211E3,1.288E3,1.89E2,2.56E2,1.169E3,8.37E2,4E0,4.24E2,2.92E2,9.19E2,1.268E3,2E1,1.86E2,3E0,2.52E2,4E0,1.55E2,1.014E3,7.57E2,8E1,3.76E2,4.8E1,2.42E2,5E1,8.83E2,3.6E1,2.2E1,1.246E3,6E0,1.4E1,1.78E2,8E0,6.3E1,1.89E2,4.7E1,1.08E2,4.33E2,5.81E2,5.41E2,2.16E2,3.3E1,4.7E1,3.47E2,2.9E1,3.9E1,9E0,3.9E1,2.03E2,4E1,1E1,6E0,8.77E2,1.8E1,1.8E1,3E0,1.9E1,2.55E2,9.91E2,3E0,3E0,1.58E2,2E1,5E0,3E0,4.7E1,1.6E1,1.9E1,1.7E2,2.6E1,2.1E1,7.5E1,3.3E1,4.09E2,2.4E1,3.91E2,1.9E2,4.3E2,1.11E2,2.07E2,9E0,1.7E1,1.6E1,3.1E1,1.6E1,3.18E2,2.9E1,5E0,2.4E1,2.2E1,1.7E1,4E0,5E0],"tree_param":{"num_deleted":"0","num_feature":"8","num_nodes":"99","size_leaf_vector":"1"}},{"base_weights":[-2.3683978E-3,-2.6028808E-2,8.943036E-2,-6.8329744E-2,-2.9050342E-3,2.713119E-1,4.6027634E-2,-1.1521638E-1,-5.1317137E-2,3.252014E-2,-6.355931E-2,-1.0311625E-1,3.0146497E-1,-1.5461239E-2,1.3920842E-1,5.0219033E-2,-1.3386667E-1,-2.9947164E-2,-1.1997598E-1,1.0698754E-2,1.451536E-1,2.7211439E-2,-8.3116844E-2,1.2653184E-1,-5.2361842E-2,3.6938164E-1,1.132062E-1,6.559084E-2,-1.0092501E-1,2.1797387E-1,-1.1302178E-3,4.0558625E-2,7.7409814E-3,-1.5694614E-1,-1.6494803E-2,-5.908362E-2,5.144893E-2,1.795317E-2,-1.5967704E-1,5.3064846E-2,-5.4334104E-2,-1.6154914E-1,1.751631E-1,-4.1505028E-2,8.873746E-2,-1.7558284E-1,-5.7552993E-2,3.2640707E-1,-2.798516E-2,1.4617257E-1,5.223931E-1,-4.9677968E-2,2.4307333E-1,2.8812513E-1,2.6509112E-2,-8.3757944E-2,-3.6678097E-1,5.549501E-1,1.6649282E-1,-4.6478286E-2,5.195552E-1,-1.7846726E-2,7.7538886E-3,-6.8740207E-3,-1.867859E-2,2.1539282E-2,-9.392566E-3,-1.1290851E-3,-1.2649417E-2,-1.1346465E-3,1.7942524E-2,-1.0031285E-2,1.0732662E-2,2.2339473E-2,-1.7109927E-2,4.271805E-3,3.3939745E-2,-2.2854691E-2,-1.685945E-3,-2.5947625E-2,3.9243728E-2,7.911465E-3,2.4385747E-2,-1.101055E-2,1.5228293E-2,1.3918057E-2,-9.088022E-3,-2.9800383E-3,-2.467708E-2,-8.197375E-3,5.1470655E-3,-6.132249E-3,5.9130933E-2,4.705078E-2,-5.255284E-4,4.3496657E-2,8.550563E-2,-3.424309E-2,6.1374707E-3,2.9343916E-2,-0E0,4.422553E-2,8.923098E-3,-4.1629756E-3,1.8301597E-2,-6.6693584E-3,-3.3316094E-2,-4.505836E-2,-1.4931313E-2,1.8807705E-3,8.3087735E-2,6.0301865E-3,2.777032E-2,4.8100525E-3,-2.3943337E-2,9.517002E-3,9.049064E-2],"categories":[],"categories_nodes":[],"categories_segments":[],"categories_sizes":[],"default_left":[0,0,0,0,0,0,0,0,0,0,0,0,0,0,0,0,0,0,0,0,0,0,0,0,0,0,0,0,0,0,0,0,0,0,0,0,0,0,0,0,0,0,0,0,0,0,0,0,0,0,0,0,0,0,0,0,0,0,0,0,0,0,0,0,0,0,0,0,0,0,0,0,0,0,0,0,0,0,0,0,0,0,0,0,0,0,0,0,0,0,0,0,0,0,0,0,0,0,0,0,0,0,0,0,0,0,0,0,0,0,0,0,0,0,0,0,0],"id":10,"left_children":[1,3,5,7,9,11,13,15,17,19,21,23,25,27,29,31,33,35,37,39,41,43,45,47,-1,49,51,53,55,57,59,-1,61,63,65,67,69,71,73,75,77,79,81,83,85,87,89,91,-1,93,95,97,99,101,103,105,107,109,111,113,115,-1,-1,-1,-1,-1,-1,-1,-1,-1,-1,-1,-1,-1,-1,-1,-1,-1,-1,-1,-1,-1,-1,-1,-1,-1,-1,-1,-1,-1,-1,-1,-1,-1,-1,-1,-1,-1,-1,-1,-1,-1,-1,-1,-1,-1,-1,-1,-1,-1,-1,-1,-1,-1,-1,-1,-1],"loss_changes":[1.1481504E1,4.1068077E0,8.50515E0,1.1619654E0,5.8539014E0,2.399272E0,5.033641E0,1.2276568E0,1.5851054E0,4.205394E0,1.7919798E0,1.6510432E0,2.3776054E0,3.6676178E0,3.8797193E0,5.593399E-1,9.390106E-1,1.9864557E0,1.4298303E0,3.9729824E0,2.5883703E0,7.609637E-1,1.9237962E0,9.8948693E-1,0E0,4.672434E0,1.1525398E0,2.3177922E0,1.1017289E0,3.7213879E0,2.9519622E0,0E0,4.8463225E-1,7.380605E-1,1.0853996E0,1.972605E0,1.7868345E0,6.2451845E-1,9.1247416E-1,2.5366242E0,3.6798308E0,1.4447894E0,1.6242981E0,1.1292408E0,8.7822384E-1,1.8122644E0,1.7405179E0,9.1094273E-1,0E0,2.9466882E0,1.9130135E0,8.29386E-1,3.801241E-1,1.1336124E0,2.4958522E0,9.7623515E-1,1.4609814E-1,4.189557E0,2.2641225E0,2.165837E0,1.4492459E0,0E0,0E0,0E0,0E0,0E0,0E0,0E0,0E0,0E0,0E0,0E0,0E0,0E0,0E0,0E0,0E0,0E0,0E0,0E0,0E0,0E0,0E0,0E0,0E0,0E0,0E0,0E0,0E0,0E0,0E0,0E0,0E0,0E0,0E0,0E0,0E0,0E0,0E0,0E0,0E0,0E0,0E0,0E0,0E0,0E0,0E0,0E0,0E0,0E0,0E0,0E0,0E0,0E0,0E0,0E0,0E0],"parents":[2147483647,0,0,1,1,2,2,3,3,4,4,5,5,6,6,7,7,8,8,9,9,10,10,11,11,12,12,13,13,14,14,15,15,16,16,17,17,18,18,19,19,20,20,21,21,22,22,23,23,25,25,26,26,27,27,28,28,29,29,30,30,32,32,33,33,34,34,35,35,36,36,37,37,38,38,39,39,40,40,41,41,42,42,43,43,44,44,45,45,46,46,47,47,49,49,50,50,51,51,52,52,53,53,54,54,55,55,56,56,57,57,58,58,59,59,60,60],"right_children":[2,4,6,8,10,12,14,16,18,20,22,24,26,28,30,32,34,36,38,40,42,44,46,48,-1,50,52,54,56,58,60,-1,62,64,66,68,70,72,74,76,78,80,82,84,86,88,90,92,-1,94,96,98,100,102,104,106,108,110,112,114,116,-1,-1,-1,-1,-1,-1,-1,-1,-1,-1,-1,-1,-1,-1,-1,-1,-1,-1,-1,-1,-1,-1,-1,-1,-1,-1,-1,-1,-1,-1,-1,-1,-1,-1,-1,-1,-1,-1,-1,-1,-1,-1,-1,-1,-1,-1,-1,-1,-1,-1,-1,-1,-1,-1,-1,-1],"split_conditions":[1.3843573E2,7.349369E1,3.6923176E1,8.446552E0,2.9350153E1,-5.655769E0,1.732732E2,4.144551E0,1.5564564E1,1.1120127E2,1E0,3.5490128E1,7E0,4.5522778E1,7E0,7.031802E0,1.016E1,2.7E2,7.38355E1,2.18947E1,-4.9921303E0,1.21388916E2,2E0,-6.755976E0,-5.2361842E-2,3E0,8.513923E0,-5.115833E0,1.4060325E1,4.433072E1,9E0,4.0558625E-2,2E0,2.379774E1,1.3255863E1,1.0908417E2,1.2917994E1,-8.428897E0,-7.62E0,3.555559E2,9.069496E1,2.741849E2,-1.1724369E1,-1.7738559E0,4.0293606E1,3.316556E1,1.320409E2,-1.0203686E1,-2.798516E-2,4.6804094E0,6E0,3.1547155E1,1.669228E2,1.870284E2,2.2246324E2,3.400169E2,1.1548412E2,-1.3094731E1,1.9489348E2,8E0,-1.1410717E1,-1.7846726E-2,7.7538886E-3,-6.8740207E-3,-1.867859E-2,2.1539282E-2,-9.392566E-3,-1.1290851E-3,-1.2649417E-2,-1.1346465E-3,1.7942524E-2,-1.0031285E-2,1.0732662E-2,2.2339473E-2,-1.7109927E-2,4.271805E-3,3.3939745E-2,-2.2854691E-2,-1.685945E-3,-2.5947625E-2,3.9243728E-2,7.911465E-3,2.4385747E-2,-1.101055E-2,1.5228293E-2,1.3918057E-2,-9.088022E-3,-2.9800383E-3,-2.467708E-2,-8.197375E-3,5.1470655E-3,-6.132249E-3,5.9130933E-2,4.705078E-2,-5.255284E-4,4.3496657E-2,8.550563E-2,-3.424309E-2,6.1374707E-3,2.9343916E-2,-0E0,4.422553E-2,8.923098E-3,-4.1629756E-3,1.8301597E-2,-6.6693584E-3,-3.3316094E-2,-4.505836E-2,-1.4931313E-2,1.8807705E-3,8.3087735E-2,6.0301865E-3,2.777032E-2,4.8100525E-3,-2.3943337E-2,9.517002E-3,9.049064E-2],"split_indices":[3,3,5,5,5,4,3,3,5,3,7,5,7,5,7,2,4,2,2,5,4,3,7,4,0,7,4,4,4,5,7,0,7,3,4,2,5,6,4,2,3,2,6,6,5,5,3,6,0,4,7,5,3,2,2,2,2,6,3,7,6,0,0,0,0,0,0,0,0,0,0,0,0,0,0,0,0,0,0,0,0,0,0,0,0,0,0,0,0,0,0,0,0,0,0,0,0,0,0,0,0,0,0,0,0,0,0,0,0,0,0,0,0,0,0,0,0],"split_type":[0,0,0,0,0,0,0,0,0,0,0,0,0,0,0,0,0,0,0,0,0,0,0,0,0,0,0,0,0,0,0,0,0,0,0,0,0,0,0,0,0,0,0,0,0,0,0,0,0,0,0,0,0,0,0,0,0,0,0,0,0,0,0,0,0,0,0,0,0,0,0,0,0,0,0,0,0,0,0,0,0,0,0,0,0,0,0,0,0,0,0,0,0,0,0,0,0,0,0,0,0,0,0,0,0,0,0,0,0,0,0,0,0,0,0,0,0],"sum_hessian":[5.287E3,4.205E3,1.082E3,1.484E3,2.721E3,2.07E2,8.75E2,3.92E2,1.092E3,1.717E3,1.004E3,1.5E1,1.92E2,5.27E2,3.48E2,3.9E1,3.53E2,8.35E2,2.57E2,1.44E3,2.77E2,1.77E2,8.27E2,1E1,5E0,1.4E2,5.2E1,2.7E2,2.57E2,2.23E2,1.25E2,3E0,3.6E1,2.94E2,5.9E1,6.16E2,2.19E2,5.7E1,2E2,8.73E2,5.67E2,2.4E1,2.53E2,8.3E1,9.4E1,1.77E2,6.5E2,7E0,3E0,5.8E1,8.2E1,2.3E1,2.9E1,3.9E1,2.31E2,2.43E2,1.4E1,2.8E1,1.95E2,1.16E2,9E0,9E0,2.7E1,7.6E1,2.18E2,1.4E1,4.5E1,3.62E2,2.54E2,1.47E2,7.2E1,2.4E1,3.3E1,5E0,1.95E2,8.44E2,2.9E1,9.9E1,4.68E2,2.1E1,3E0,1.07E2,1.46E2,6.2E1,2.1E1,7.4E1,2E1,5.9E1,1.18E2,5.32E2,1.18E2,3E0,4E0,1.8E1,4E1,6.7E1,1.5E1,6E0,1.7E1,2.4E1,5E0,2.1E1,1.8E1,1.61E2,7E1,2.29E2,1.4E1,9E0,5E0,1E1,1.8E1,1.01E2,9.4E1,7.8E1,3.8E1,5E0,4E0],"tree_param":{"num_deleted":"0","num_feature":"8","num_nodes":"117","size_leaf_vector":"1"}},{"base_weights":[-2.7055584E-3,-6.607269E-2,1.2726637E-2,8.159671E-3,-8.684104E-2,2.8272362E-2,-6.424941E-2,-8.811446E-3,3.2129315E-1,-1.8419561E-1,-5.8708314E-2,-5.505826E-3,7.803631E-2,6.6675514E-2,-8.65565E-2,3.817423E-2,-9.898684E-2,5.1121633E-3,3.94559E-2,-1.1009718E-1,-2.9094264E-1,-7.778506E-2,9.4405875E-2,6.1148066E-2,-2.4318378E-2,2.7553944E-2,1.3629776E-1,-6.355024E-2,2.1618505E-1,-7.838209E-2,-2.9767126E-1,-2.0440702E-1,7.584254E-2,-3.1548318E-2,-7.0590414E-2,-4.1886613E-2,-9.026342E-2,-3.1867553E-2,-9.656875E-2,-1.1674695E-1,5.4266816E-3,1.451643E-1,-1.316244E-1,2.6868653E-1,3.68723E-2,-1.16363764E-1,6.8498747E-3,1.6693133E-1,-1.8780064E-2,-2.5031127E-3,1.9121824E-1,1.2001887E-1,-1.888014E-1,1.08478025E-1,4.705613E-2,-1.0231927E-1,5.3166393E-2,-3.8407713E-2,-0E0,-2.7443409E-2,2.6555567E-3,4.7122412E-3,3.3163678E-2,1.1215143E-2,-1.0957833E-2,-1.0822326E-2,1.2628256E-2,1.5707335E-2,-3.5078272E-2,-6.7902072E-3,-2.2321355E-2,-2.581259E-2,4.6317354E-3,-6.0052364E-3,1.8612353E-2,1.3827729E-2,-2.3642264E-2,7.302306E-2,1.2537939E-2,7.1395556E-3,-2.6343164E-3,-7.882985E-3,-2.0291263E-2,-1.2009265E-2,2.0746633E-3,2.0881196E-2,-1.3251192E-2,-2.9877296E-3,6.056401E-2,3.6586465E-3,-1.2698998E-2,2.0762332E-2,4.3021954E-4,2.3477701E-2,-0E0,-2.7545884E-2,1.7051436E-2,2.4158334E-2,-1.1080057E-2,-1.5132687E-3,-1.2828943E-2,1.5321595E-2,-1.1612891E-2],"categories":[],"categories_nodes":[],"categories_segments":[],"categories_sizes":[],"default_left":[0,0,0,0,0,0,0,0,0,0,0,0,0,0,0,0,0,0,0,0,0,0,0,0,0,0,0,0,0,0,0,0,0,0,0,0,0,0,0,0,0,0,0,0,0,0,0,0,0,0,0,0,0,0,0,0,0,0,0,0,0,0,0,0,0,0,0,0,0,0,0,0,0,0,0,0,0,0,0,0,0,0,0,0,0,0,0,0,0,0,0,0,0,0,0,0,0,0,0,0,0,0,0],"id":11,"left_children":[1,3,5,7,9,11,13,15,17,19,21,23,25,27,29,31,33,-1,-1,35,37,39,41,43,45,47,49,51,53,55,57,59,61,-1,63,-1,65,-1,67,69,71,73,75,77,79,81,83,85,87,89,91,93,95,97,-1,99,101,-1,-1,-1,-1,-1,-1,-1,-1,-1,-1,-1,-1,-1,-1,-1,-1,-1,-1,-1,-1,-1,-1,-1,-1,-1,-1,-1,-1,-1,-1,-1,-1,-1,-1,-1,-1,-1,-1,-1,-1,-1,-1,-1,-1,-1,-1],"loss_changes":[5.187057E0,1.6103864E0,5.0959415E0,1.2404083E0,2.1915812E0,5.9682817E0,2.095956E0,9.250416E-1,1.7279375E-1,1.3595357E0,1.854624E0,2.6461039E0,4.200448E0,2.0538812E0,9.952159E-1,1.300189E0,4.0020168E-1,0E0,0E0,5.7879996E-1,3.2121134E-1,1.8403025E0,8.235669E-1,2.2972412E0,4.7425547E0,4.997001E0,5.0886517E0,1.3171035E0,1.2335577E0,1.8713553E0,5.583793E-1,3.393746E-1,8.574553E-1,0E0,4.9651334E-1,0E0,4.163304E-1,0E0,7.8374255E-1,1.9578652E0,1.9306066E0,5.1130414E-1,4.1021436E-1,2.9977255E0,9.1644824E-1,1.3137102E0,2.165915E0,2.4556875E0,3.9726038E0,9.333867E-1,1.4405727E0,3.3013877E-1,1.1161355E0,1.0905832E0,0E0,1.1181054E0,1.5628523E0,0E0,0E0,0E0,0E0,0E0,0E0,0E0,0E0,0E0,0E0,0E0,0E0,0E0,0E0,0E0,0E0,0E0,0E0,0E0,0E0,0E0,0E0,0E0,0E0,0E0,0E0,0E0,0E0,0E0,0E0,0E0,0E0,0E0,0E0,0E0,0E0,0E0,0E0,0E0,0E0,0E0,0E0,0E0,0E0,0E0,0E0],"parents":[2147483647,0,0,1,1,2,2,3,3,4,4,5,5,6,6,7,7,8,8,9,9,10,10,11,11,12,12,13,13,14,14,15,15,16,16,19,19,20,20,21,21,22,22,23,23,24,24,25,25,26,26,27,27,28,28,29,29,30,30,31,31,32,32,34,34,36,36,38,38,39,39,40,40,41,41,42,42,43,43,44,44,45,45,46,46,47,47,48,48,49,49,50,50,51,51,52,52,53,53,55,55,56,56],"right_children":[2,4,6,8,10,12,14,16,18,20,22,24,26,28,30,32,34,-1,-1,36,38,40,42,44,46,48,50,52,54,56,58,60,62,-1,64,-1,66,-1,68,70,72,74,76,78,80,82,84,86,88,90,92,94,96,98,-1,100,102,-1,-1,-1,-1,-1,-1,-1,-1,-1,-1,-1,-1,-1,-1,-1,-1,-1,-1,-1,-1,-1,-1,-1,-1,-1,-1,-1,-1,-1,-1,-1,-1,-1,-1,-1,-1,-1,-1,-1,-1,-1,-1,-1,-1,-1,-1],"split_conditions":[1.35111475E1,2.5566144E0,8E0,1.2784259E1,3.421E3,2.5606341E0,1.8204323E1,4E0,-9.224977E0,-7.3609767E0,1.4661014E1,1E0,3.484E3,3.634E3,3.7237747E1,4.80244E0,-2.5219977E0,5.1121633E-3,3.94559E-2,3.3251371E0,7.62E0,-6.2532063E0,3.2981327E1,-6.5719786E0,3E0,3.1140814E0,1.826172E1,-3.0761585E-2,-5.633244E0,2.7307415E1,-1.7738559E0,1.1616099E0,-3.3534644E0,-3.1548318E-2,-9.6674347E-1,-4.1886613E-2,3.401E3,-3.1867553E-2,1.2978679E1,-9.579641E0,1.2370154E1,9.8992195E0,3.586E3,3.126E3,-9.0484905E-1,-2.350468E-1,-1.65758E1,2.895E3,7.1517845E1,1.609564E1,4.999531E1,-1.1353673E1,1.3255863E1,-1.0689912E1,4.705613E-2,1.1190623E0,3.2981327E1,-3.8407713E-2,-0E0,-2.7443409E-2,2.6555567E-3,4.7122412E-3,3.3163678E-2,1.1215143E-2,-1.0957833E-2,-1.0822326E-2,1.2628256E-2,1.5707335E-2,-3.5078272E-2,-6.7902072E-3,-2.2321355E-2,-2.581259E-2,4.6317354E-3,-6.0052364E-3,1.8612353E-2,1.3827729E-2,-2.3642264E-2,7.302306E-2,1.2537939E-2,7.1395556E-3,-2.6343164E-3,-7.882985E-3,-2.0291263E-2,-1.2009265E-2,2.0746633E-3,2.0881196E-2,-1.3251192E-2,-2.9877296E-3,6.056401E-2,3.6586465E-3,-1.2698998E-2,2.0762332E-2,4.3021954E-4,2.3477701E-2,-0E0,-2.7545884E-2,1.7051436E-2,2.4158334E-2,-1.1080057E-2,-1.5132687E-3,-1.2828943E-2,1.5321595E-2,-1.1612891E-2],"split_indices":[5,1,7,5,0,4,5,7,6,6,4,7,0,0,1,5,4,0,0,1,4,6,1,4,7,1,1,4,6,1,6,4,6,0,4,0,0,0,4,6,1,1,0,0,4,4,6,0,5,4,5,6,4,6,0,1,1,0,0,0,0,0,0,0,0,0,0,0,0,0,0,0,0,0,0,0,0,0,0,0,0,0,0,0,0,0,0,0,0,0,0,0,0,0,0,0,0,0,0,0,0,0,0],"split_type":[0,0,0,0,0,0,0,0,0,0,0,0,0,0,0,0,0,0,0,0,0,0,0,0,0,0,0,0,0,0,0,0,0,0,0,0,0,0,0,0,0,0,0,0,0,0,0,0,0,0,0,0,0,0,0,0,0,0,0,0,0,0,0,0,0,0,0,0,0,0,0,0,0,0,0,0,0,0,0,0,0,0,0,0,0,0,0,0,0,0,0,0,0,0,0,0,0,0,0,0,0,0,0],"sum_hessian":[5.297E3,1.038E3,4.259E3,2.26E2,8.12E2,3.545E3,7.14E2,2.15E2,1.1E1,1.8E2,6.32E2,2.111E3,1.434E3,1.03E2,6.11E2,1.41E2,7.4E1,3E0,8E0,1.08E2,7.2E1,5.63E2,6.9E1,4.63E2,1.648E3,7.7E2,6.64E2,5.5E1,4.8E1,5.9E2,2.1E1,1.8E1,1.23E2,7E0,6.7E1,5E0,1.03E2,6.2E1,1E1,3.84E2,1.79E2,5.7E1,1.2E1,4.7E1,4.16E2,4.17E2,1.231E3,1.92E2,5.78E2,1.88E2,4.76E2,2.2E1,3.3E1,3.5E1,1.3E1,5E2,9E1,1.6E1,5E0,1.4E1,4E0,1.12E2,1.1E1,1.1E1,5.6E1,9.6E1,7E0,5E0,5E0,2.65E2,1.19E2,2.3E1,1.56E2,9E0,4.8E1,3E0,9E0,1E1,3.7E1,2.7E2,1.46E2,2.93E2,1.24E2,1.2E2,1.111E3,1.69E2,2.3E1,5.69E2,9E0,1.43E2,4.5E1,4.37E2,3.9E1,1.1E1,1.1E1,2.7E1,6E0,2.2E1,1.3E1,1.16E2,3.84E2,5.7E1,3.3E1],"tree_param":{"num_deleted":"0","num_feature":"8","num_nodes":"103","size_leaf_vector":"1"}},{"base_weights":[4.427906E-3,-1.9749537E-2,6.1346505E-2,-9.635934E-2,-7.633722E-3,1.2742703E-1,8.344891E-3,-1.370757E-1,-3.8912774E-3,9.523786E-3,-8.0487534E-2,1.1716121E-1,6.6033804E-1,-5.190239E-2,1.057189E-1,-3.979585E-2,-1.7698495E-1,-2.9576533E-2,3.32955E-1,-2.642252E-2,3.9739765E-2,-4.039124E-2,-1.4030708E-1,8.647148E-2,2.8651175E-1,7.869392E-3,8.9899164E-1,-4.076623E-3,-1.084944E-1,2.426491E-1,2.5524495E-2,-2.2511806E-2,-4.4559E-2,-2.9801935E-1,-1.5063176E-1,-7.4792593E-3,-3.589145E-2,-2.3278352E-4,4.7147703E-1,5.2547988E-2,-5.0702006E-2,1.0797625E-1,8.301644E-3,-8.2354926E-2,9.735552E-2,-3.1995958E-1,-1.0665421E-1,1.8258235E-1,6.1001987E-3,3.8344255E-1,-7.560558E-2,1.0727773E-1,3.8856544E-2,-2.5501706E-2,3.0774048E-1,-1.22553535E-1,3.196136E-1,1.7992693E-1,8.0995554E-1,5.8034282E-2,-1.671318E-1,6.537171E-4,-2.7251128E-2,-9.655431E-3,-3.6113065E-2,-1.3141158E-2,-3.296423E-2,2.734369E-2,-2.5072116E-3,6.716275E-2,1.9706126E-2,1.064222E-2,-4.0617376E-3,-3.4734886E-3,-1.6782768E-2,5.585901E-2,9.302999E-3,2.9924244E-3,-9.566178E-3,-1.58808E-2,9.1373635E-4,6.256252E-3,7.786699E-2,-3.463263E-2,-0E0,-6.3309665E-3,-1.9101031E-2,7.981179E-3,2.5040478E-2,8.836095E-3,-5.4869396E-3,-3.0001977E-2,4.136945E-2,5.7385113E-2,-2.0671664E-2,9.391582E-3,-5.1559354E-3,-2.345485E-3,5.1122565E-2,-1.8633165E-3,-1.6561572E-2,-0E0,6.2580176E-2,2.0317059E-2,-4.8506603E-2,9.571843E-2,3.923984E-2,2.1693518E-2,3.560161E-4,3.6071815E-2,-2.4014136E-2],"categories":[],"categories_nodes":[],"categories_segments":[],"categories_sizes":[],"default_left":[0,0,0,0,0,0,0,0,0,0,0,0,0,0,0,0,0,0,0,0,0,0,0,0,0,0,0,0,0,0,0,0,0,0,0,0,0,0,0,0,0,0,0,0,0,0,0,0,0,0,0,0,0,0,0,0,0,0,0,0,0,0,0,0,0,0,0,0,0,0,0,0,0,0,0,0,0,0,0,0,0,0,0,0,0,0,0,0,0,0,0,0,0,0,0,0,0,0,0,0,0,0,0,0,0,0,0,0,0,0,0],"id":12,"left_children":[1,3,5,7,9,11,13,15,17,19,21,23,25,27,29,31,33,35,37,39,41,43,45,47,49,-1,51,53,55,57,59,61,-1,63,65,67,-1,-1,69,71,73,75,77,79,81,83,85,87,89,91,93,-1,-1,95,97,99,101,103,105,107,109,-1,-1,-1,-1,-1,-1,-1,-1,-1,-1,-1,-1,-1,-1,-1,-1,-1,-1,-1,-1,-1,-1,-1,-1,-1,-1,-1,-1,-1,-1,-1,-1,-1,-1,-1,-1,-1,-1,-1,-1,-1,-1,-1,-1,-1,-1,-1,-1,-1,-1],"loss_changes":[7.360873E0,3.4705067E0,5.5716467E0,1.909266E0,4.0590796E0,3.7236557E0,5.214472E0,1.3456359E0,1.346523E0,2.8513608E0,1.4609613E0,3.56046E0,1.6360354E0,1.4714934E0,3.7005413E0,6.79604E-1,7.076545E-1,1.0377419E0,5.5889714E-1,2.2975638E0,3.0487144E0,2.1625926E0,1.4165316E0,4.5529532E0,3.780407E0,0E0,2.3536396E-1,1.9771553E0,1.5241709E0,4.203115E0,1.3516442E0,7.691262E-1,0E0,4.660957E-1,6.262231E-1,6.739157E-1,0E0,0E0,2.2017491E-1,1.4213011E0,1.6888509E0,2.9068842E0,2.197041E0,2.0239453E0,1.9294939E0,3.0774856E-1,7.303145E-1,1.8219624E0,1.6331885E0,1.8722734E0,2.0403829E0,0E0,0E0,8.750054E-1,1.3412412E0,1.0659237E0,7.4928826E-1,1.8324444E0,2.2716045E-1,1.587192E0,1.2692468E0,0E0,0E0,0E0,0E0,0E0,0E0,0E0,0E0,0E0,0E0,0E0,0E0,0E0,0E0,0E0,0E0,0E0,0E0,0E0,0E0,0E0,0E0,0E0,0E0,0E0,0E0,0E0,0E0,0E0,0E0,0E0,0E0,0E0,0E0,0E0,0E0,0E0,0E0,0E0,0E0,0E0,0E0,0E0,0E0,0E0,0E0,0E0,0E0,0E0,0E0],"parents":[2147483647,0,0,1,1,2,2,3,3,4,4,5,5,6,6,7,7,8,8,9,9,10,10,11,11,12,12,13,13,14,14,15,15,16,16,17,17,18,18,19,19,20,20,21,21,22,22,23,23,24,24,26,26,27,27,28,28,29,29,30,30,31,31,33,33,34,34,35,35,38,38,39,39,40,40,41,41,42,42,43,43,44,44,45,45,46,46,47,47,48,48,49,49,50,50,53,53,54,54,55,55,56,56,57,57,58,58,59,59,60,60],"right_children":[2,4,6,8,10,12,14,16,18,20,22,24,26,28,30,32,34,36,38,40,42,44,46,48,50,-1,52,54,56,58,60,62,-1,64,66,68,-1,-1,70,72,74,76,78,80,82,84,86,88,90,92,94,-1,-1,96,98,100,102,104,106,108,110,-1,-1,-1,-1,-1,-1,-1,-1,-1,-1,-1,-1,-1,-1,-1,-1,-1,-1,-1,-1,-1,-1,-1,-1,-1,-1,-1,-1,-1,-1,-1,-1,-1,-1,-1,-1,-1,-1,-1,-1,-1,-1,-1,-1,-1,-1,-1,-1,-1,-1],"split_conditions":[1.2486099E2,4.699575E1,3.9705627E1,-3.7537029E0,2.9350153E1,-1.6772068E0,1.7540675E2,2.983E3,2.5606341E0,7.86168E1,5E0,1.5598468E2,1.2565808E2,-8.5712874E-1,5.537663E1,1.0906769E1,3.401E3,8.5712874E-1,3.0023521E1,2.905E3,1.976958E1,4E0,-1.0536766E1,3.28422E1,2.369155E1,7.869392E-3,-2.7630455E0,-1.6423988E0,2.5478857E1,-5.633244E0,8E0,-6.1797814E0,-4.4559E-2,3.145E3,-5.149139E0,2.389E3,-3.589145E-2,-2.3278352E-4,3.468E3,1.6019888E1,1.8343805E1,2.389E3,8E0,1.12944145E2,3.927E3,4.028E3,3.62519E1,1.3084239E2,-1.09E1,2.624E3,1E0,1.0727773E-1,3.8856544E-2,1E0,-7.1982307E0,-1.17856245E1,3.36E3,-6.1797814E0,-4.5669103E0,-1.0831904E1,2.624E3,6.537171E-4,-2.7251128E-2,-9.655431E-3,-3.6113065E-2,-1.3141158E-2,-3.296423E-2,2.734369E-2,-2.5072116E-3,6.716275E-2,1.9706126E-2,1.064222E-2,-4.0617376E-3,-3.4734886E-3,-1.6782768E-2,5.585901E-2,9.302999E-3,2.9924244E-3,-9.566178E-3,-1.58808E-2,9.1373635E-4,6.256252E-3,7.786699E-2,-3.463263E-2,-0E0,-6.3309665E-3,-1.9101031E-2,7.981179E-3,2.5040478E-2,8.836095E-3,-5.4869396E-3,-3.0001977E-2,4.136945E-2,5.7385113E-2,-2.0671664E-2,9.391582E-3,-5.1559354E-3,-2.345485E-3,5.1122565E-2,-1.8633165E-3,-1.6561572E-2,-0E0,6.2580176E-2,2.0317059E-2,-4.8506603E-2,9.571843E-2,3.923984E-2,2.1693518E-2,3.560161E-4,3.6071815E-2,-2.4014136E-2],"split_indices":[3,3,5,6,5,6,3,0,4,3,7,3,3,4,5,5,0,4,3,0,5,7,6,5,4,0,4,4,4,6,7,6,0,0,6,0,0,0,0,5,5,0,7,3,0,0,5,3,6,0,7,0,0,7,6,6,0,6,6,6,0,0,0,0,0,0,0,0,0,0,0,0,0,0,0,0,0,0,0,0,0,0,0,0,0,0,0,0,0,0,0,0,0,0,0,0,0,0,0,0,0,0,0,0,0,0,0,0,0,0,0],"split_type":[0,0,0,0,0,0,0,0,0,0,0,0,0,0,0,0,0,0,0,0,0,0,0,0,0,0,0,0,0,0,0,0,0,0,0,0,0,0,0,0,0,0,0,0,0,0,0,0,0,0,0,0,0,0,0,0,0,0,0,0,0,0,0,0,0,0,0,0,0,0,0,0,0,0,0,0,0,0,0,0,0,0,0,0,0,0,0,0,0,0,0,0,0,0,0,0,0,0,0,0,0,0,0,0,0,0,0,0,0,0,0],"sum_hessian":[5.344E3,3.75E3,1.594E3,5.1E2,3.24E3,7.08E2,8.86E2,3.53E2,1.57E2,2.622E3,6.18E2,6.96E2,1.2E1,5.47E2,3.39E2,1.04E2,2.49E2,1.47E2,1E1,1.196E3,1.426E3,3.72E2,2.46E2,5.91E2,1.05E2,4E0,8E0,2.98E2,2.49E2,1.24E2,2.15E2,1.01E2,3E0,4.2E1,2.07E2,1.39E2,8E0,3E0,7E0,2.8E2,9.16E2,4.48E2,9.78E2,2.86E2,8.6E1,3.7E1,2.09E2,2.68E2,3.23E2,8.3E1,2.2E1,5E0,3E0,2.8E2,1.8E1,2.42E2,7E0,1.13E2,1.1E1,1.85E2,3E1,9.1E1,1E1,1.1E1,3.1E1,1.89E2,1.8E1,7E0,1.32E2,3E0,4E0,1.78E2,1.02E2,8.08E2,1.08E2,1.3E1,4.35E2,8.11E2,1.67E2,1.56E2,1.3E2,8.3E1,3E0,3.4E1,3E0,1.4E2,6.9E1,1.08E2,1.6E2,1.38E2,1.85E2,3E0,8E1,3E0,1.9E1,4.9E1,2.31E2,7E0,1.1E1,7.2E1,1.7E2,4E0,3E0,1.1E2,3E0,7E0,4E0,4.6E1,1.39E2,3E0,2.7E1],"tree_param":{"num_deleted":"0","num_feature":"8","num_nodes":"111","size_leaf_vector":"1"}},{"base_weights":[4.3130564E-3,-4.4271447E-2,3.3623323E-2,1.2642532E-2,-6.2116582E-2,2.1661498E-2,1.4384197E-1,2.0156169E-1,-7.134305E-3,-7.3379435E-2,7.662576E-2,8.5857354E-2,7.674803E-3,4.3728212E-1,1.1446744E-1,-5.231099E-2,3.293166E-1,8.698225E-3,-1.9706203E-1,-1.8026179E-1,-6.257355E-2,-2.6998963E-2,2.4064197E-1,5.728819E-2,7.9099774E-2,-1.18287854E-1,3.6113407E-2,-2.3765543E-4,5.557759E-1,9.054923E-2,4.7594255E-1,-1.7542635E-1,2.3362806E-2,4.0236324E-1,7.104673E-4,-3.324217E-2,1.40836695E-2,-2.6253837E-1,1.3558388E-2,-3.465333E-1,-8.5871905E-2,-7.392549E-2,3.216601E-2,-2.153123E-1,2.5501259E-2,5.2806824E-2,1.9728163E-1,9.084873E-2,-1.9284628E-1,-2.3361564E-1,-6.344494E-2,8.253354E-2,-6.2937676E-3,-1.6675947E-2,1.4134357E-2,9.545716E-2,3.1539205E-2,7.084151E-2,3.6900967E-1,1.1824395E-2,5.625533E-1,-2.359367E-2,-0E0,1.9355685E-2,4.67257E-2,-1.4439081E-4,1.1459113E-2,-1.7991174E-2,-3.915378E-2,-9.189602E-3,-4.3076128E-2,-3.6146888E-3,-4.0348824E-2,1.50234895E-2,-7.849897E-3,-2.3779182E-3,2.0034127E-2,-3.7194528E-2,2.4922255E-3,-9.0241395E-3,6.86117E-3,2.1471707E-2,-0E0,2.7523411E-2,7.5664143E-3,2.5334036E-2,-2.8189367E-2,-9.618815E-3,-3.169462E-2,2.32016E-3,-1.36977555E-2,1.4289185E-2,3.8418812E-3,-4.3978924E-3,4.4414825E-3,2.9312803E-3,1.9346835E-2,5.0564464E-2,2.2700155E-2,6.360932E-2,1.946804E-2],"categories":[],"categories_nodes":[],"categories_segments":[],"categories_sizes":[],"default_left":[0,0,0,0,0,0,0,0,0,0,0,0,0,0,0,0,0,0,0,0,0,0,0,0,0,0,0,0,0,0,0,0,0,0,0,0,0,0,0,0,0,0,0,0,0,0,0,0,0,0,0,0,0,0,0,0,0,0,0,0,0,0,0,0,0,0,0,0,0,0,0,0,0,0,0,0,0,0,0,0,0,0,0,0,0,0,0,0,0,0,0,0,0,0,0,0,0,0,0,0,0],"id":13,"left_children":[1,3,5,7,9,11,13,15,17,19,21,23,25,27,29,31,33,35,37,39,41,43,45,-1,47,49,51,53,55,57,59,61,-1,63,-1,-1,65,67,-1,69,71,73,75,77,79,-1,81,83,85,87,89,91,93,-1,-1,-1,-1,95,97,-1,99,-1,-1,-1,-1,-1,-1,-1,-1,-1,-1,-1,-1,-1,-1,-1,-1,-1,-1,-1,-1,-1,-1,-1,-1,-1,-1,-1,-1,-1,-1,-1,-1,-1,-1,-1,-1,-1,-1,-1,-1],"loss_changes":[7.6218038E0,2.0502114E0,4.3838434E0,1.814268E0,2.4023795E0,2.69712E0,2.7047806E0,1.5368671E0,1.3286114E0,1.6044774E0,1.9824167E0,1.6601009E0,8.872751E0,1.5591435E0,2.4767144E0,5.984202E-1,6.8582606E-1,7.1135503E-1,7.888261E-1,1.9515734E0,1.396071E0,7.264128E-1,3.8411713E-1,0E0,1.7071033E0,2.8396316E0,3.990513E0,1.9114651E-1,1.7768116E0,1.471951E0,4.2305183E-1,1.3170221E-1,0E0,1.8223381E-1,0E0,0E0,6.3105327E-1,1.815176E-1,0E0,8.947377E-1,1.2681037E0,1.1887197E0,1.3208066E0,6.4603037E-1,2.8345278E-1,0E0,1.5620828E-1,1.3747907E0,9.48369E-1,1.6001792E0,1.9960443E0,2.5512013E0,2.0217957E0,0E0,0E0,0E0,0E0,1.3164797E0,1.6121244E-1,0E0,1.7183447E-1,0E0,0E0,0E0,0E0,0E0,0E0,0E0,0E0,0E0,0E0,0E0,0E0,0E0,0E0,0E0,0E0,0E0,0E0,0E0,0E0,0E0,0E0,0E0,0E0,0E0,0E0,0E0,0E0,0E0,0E0,0E0,0E0,0E0,0E0,0E0,0E0,0E0,0E0,0E0,0E0],"parents":[2147483647,0,0,1,1,2,2,3,3,4,4,5,5,6,6,7,7,8,8,9,9,10,10,11,11,12,12,13,13,14,14,15,15,16,16,17,17,18,18,19,19,20,20,21,21,22,22,24,24,25,25,26,26,27,27,28,28,29,29,30,30,31,31,33,33,36,36,37,37,39,39,40,40,41,41,42,42,43,43,44,44,46,46,47,47,48,48,49,49,50,50,51,51,52,52,57,57,58,58,60,60],"right_children":[2,4,6,8,10,12,14,16,18,20,22,24,26,28,30,32,34,36,38,40,42,44,46,-1,48,50,52,54,56,58,60,62,-1,64,-1,-1,66,68,-1,70,72,74,76,78,80,-1,82,84,86,88,90,92,94,-1,-1,-1,-1,96,98,-1,100,-1,-1,-1,-1,-1,-1,-1,-1,-1,-1,-1,-1,-1,-1,-1,-1,-1,-1,-1,-1,-1,-1,-1,-1,-1,-1,-1,-1,-1,-1,-1,-1,-1,-1,-1,-1,-1,-1,-1,-1],"split_conditions":[8.663004E1,2.5566144E0,1.7881207E1,-3.8068495E0,3.991E3,1E0,6.970338E-1,-5.3111334E0,2.859E3,3.107E3,6.6985115E1,8.800252E1,3E0,1.06571434E2,3.3532315E2,6.970338E-1,8.004128E1,-3.5013878E0,2.3836946E0,3E0,1.7101995E1,-3.3471744E0,-5.0763254E0,5.728819E-2,3.912E3,3.355E3,5E0,2.369155E1,5E0,4.7651722E1,1.8923841E1,8.334206E1,2.3362806E-2,5.885873E1,7.104673E-4,-3.324217E-2,7.4334764E0,7.955259E1,1.3558388E-2,4.976364E1,3.2134018E2,-6.5719786E0,3.682E3,2.8594913E1,4.073034E1,5.2806824E-2,8.513923E0,-6.755976E0,2.427444E1,2.539E3,1.22441E2,1.3781763E1,3.606E3,-1.6675947E-2,1.4134357E-2,9.545716E-2,3.1539205E-2,1.7540675E2,1.11179054E2,1.1824395E-2,3.8815308E1,-2.359367E-2,-0E0,1.9355685E-2,4.67257E-2,-1.4439081E-4,1.1459113E-2,-1.7991174E-2,-3.915378E-2,-9.189602E-3,-4.3076128E-2,-3.6146888E-3,-4.0348824E-2,1.50234895E-2,-7.849897E-3,-2.3779182E-3,2.0034127E-2,-3.7194528E-2,2.4922255E-3,-9.0241395E-3,6.86117E-3,2.1471707E-2,-0E0,2.7523411E-2,7.5664143E-3,2.5334036E-2,-2.8189367E-2,-9.618815E-3,-3.169462E-2,2.32016E-3,-1.36977555E-2,1.4289185E-2,3.8418812E-3,-4.3978924E-3,4.4414825E-3,2.9312803E-3,1.9346835E-2,5.0564464E-2,2.2700155E-2,6.360932E-2,1.946804E-2],"split_indices":[3,1,4,4,0,7,1,4,0,0,3,3,7,3,2,1,3,4,1,7,4,4,4,0,0,0,7,4,7,4,4,3,0,3,0,0,4,3,0,2,2,4,0,1,3,0,4,4,2,0,3,1,0,0,0,0,0,3,2,0,4,0,0,0,0,0,0,0,0,0,0,0,0,0,0,0,0,0,0,0,0,0,0,0,0,0,0,0,0,0,0,0,0,0,0,0,0,0,0,0,0],"split_type":[0,0,0,0,0,0,0,0,0,0,0,0,0,0,0,0,0,0,0,0,0,0,0,0,0,0,0,0,0,0,0,0,0,0,0,0,0,0,0,0,0,0,0,0,0,0,0,0,0,0,0,0,0,0,0,0,0,0,0,0,0,0,0,0,0,0,0,0,0,0,0,0,0,0,0,0,0,0,0,0,0,0,0,0,0,0,0,0,0,0,0,0,0,0,0,0,0,0,0,0,0],"sum_hessian":[5.351E3,2.012E3,3.339E3,4.79E2,1.533E3,3.014E3,3.25E2,4.5E1,4.34E2,1.419E3,1.14E2,5.37E2,2.477E3,2.8E1,2.97E2,1.5E1,3E1,4.01E2,3.3E1,1.28E2,1.291E3,7E1,4.4E1,6E0,5.31E2,4.55E2,2.022E3,6E0,2.2E1,2.8E2,1.7E1,1.1E1,4E0,2.4E1,6E0,5E0,3.96E2,2.8E1,5E0,4.5E1,8.3E1,1.154E3,1.37E2,1.5E1,5.5E1,4E0,4E1,5.1E2,2.1E1,1.45E2,3.1E2,9.66E2,1.056E3,3E0,3E0,7E0,1.5E1,2.63E2,1.7E1,4E0,1.3E1,8E0,3E0,7E0,1.7E1,3.43E2,5.3E1,1.9E1,9E0,1.2E1,3.3E1,7.3E1,1E1,2.2E1,1.132E3,1.03E2,3.4E1,9E0,6E0,1.4E1,4.1E1,3.7E1,3E0,3.7E1,4.73E2,3E0,1.8E1,5.6E1,8.9E1,1.42E2,1.68E2,4.06E2,5.6E2,6.07E2,4.49E2,1.98E2,6.5E1,7E0,1E1,1E1,3E0],"tree_param":{"num_deleted":"0","num_feature":"8","num_nodes":"101","size_leaf_vector":"1"}},{"base_weights":[-3.069127E-3,-1.991585E-2,7.19423E-2,-2.4015458E-2,8.676166E-2,2.2182705E-1,4.7376882E-2,1.4239055E-2,-3.4213457E-2,3.4830894E-2,2.2734143E-1,4.630937E-1,1.0669483E-1,-1.475786E-1,7.949644E-2,2.0191673E-2,-2.867507E-1,-8.497689E-2,-9.167963E-3,1.3283017E-1,-5.737537E-2,1.7222422E-1,5.9178736E-2,-8.0209235E-3,5.072429E-1,1.6166094E-1,-3.6668324E-1,-2.198913E-1,1.1619615E-2,3.635292E-2,1.9553272E-1,3.157122E-2,-1.330504E-1,-4.236863E-2,-6.723741E-2,-4.16138E-2,-1.2967882E-1,4.6001006E-2,-3.1770494E-2,-1.8248227E-1,2.029446E-1,4.5021836E-2,-1.01868354E-1,2.6980165E-1,-1.4149863E-2,1.5715773E-1,5.599102E-1,1.1704257E-1,8.4107004E-2,-4.877817E-2,-3.8090148E-3,-2.711371E-1,1.7131664E-1,-2.5708077E-2,3.6033202E-2,-1.5917204E-2,9.229965E-2,3.4762275E-1,1.2236824E-1,8.168123E-4,9.359766E-3,2.1772565E-2,-1.7790932E-2,5.12353E-3,-2.2351895E-2,3.4219127E-2,-5.006316E-3,-3.4900326E-2,-1.0987931E-2,-1.3893589E-3,1.13071585E-2,-5.369481E-3,9.037447E-4,-3.542045E-2,-6.131088E-3,-8.038319E-3,2.3213781E-2,-1.9642835E-2,5.7249293E-3,4.1132968E-2,1.4938854E-2,1.1801259E-2,-1.4052327E-2,-1.5299079E-2,4.5301683E-2,1.6353019E-2,6.0255498E-2,8.036635E-3,5.5154707E-2,-1.9386498E-2,-3.404669E-2,6.610509E-2,-1.1871962E-2,1.0211025E-2,-1.5765375E-2,6.0990476E-3,-1.1723878E-2,-1.4534648E-2,1.1873769E-2,5.5444267E-2,1.1302023E-2,5.5305492E-2,8.268886E-3],"categories":[],"categories_nodes":[],"categories_segments":[],"categories_sizes":[],"default_left":[0,0,0,0,0,0,0,0,0,0,0,0,0,0,0,0,0,0,0,0,0,0,0,0,0,0,0,0,0,0,0,0,0,0,0,0,0,0,0,0,0,0,0,0,0,0,0,0,0,0,0,0,0,0,0,0,0,0,0,0,0,0,0,0,0,0,0,0,0,0,0,0,0,0,0,0,0,0,0,0,0,0,0,0,0,0,0,0,0,0,0,0,0,0,0,0,0,0,0,0,0,0,0],"id":14,"left_children":[1,3,5,7,9,11,13,15,17,19,21,23,25,27,29,31,33,35,37,39,41,43,-1,-1,45,47,49,51,53,55,57,59,61,-1,63,65,67,69,71,73,75,-1,77,79,81,83,85,87,-1,-1,-1,89,91,93,-1,95,97,99,101,-1,-1,-1,-1,-1,-1,-1,-1,-1,-1,-1,-1,-1,-1,-1,-1,-1,-1,-1,-1,-1,-1,-1,-1,-1,-1,-1,-1,-1,-1,-1,-1,-1,-1,-1,-1,-1,-1,-1,-1,-1,-1,-1,-1],"loss_changes":[6.796182E0,1.9183381E0,3.5930033E0,1.6546407E0,1.1485314E0,3.7269158E0,5.3212647E0,1.5737263E0,4.2438946E0,1.0995045E0,6.8543005E-1,1.1387901E0,2.5106528E0,1.4048288E0,3.6242394E0,1.518156E0,4.3342626E-1,2.1174836E0,2.7969656E0,1.3434491E0,1.4112582E0,7.3863304E-1,0E0,0E0,5.962572E-1,2.4127629E0,3.267542E-1,1.720396E0,5.3735775E-1,1.5707064E0,2.1025972E0,1.1721218E0,9.788798E-1,0E0,1.768012E-1,1.8136755E0,2.2694073E0,2.6266634E0,1.4301864E0,1.6561794E-1,4.3912673E-1,0E0,8.978409E-1,3.2556784E-1,2.5266007E-1,7.4163187E-1,4.1648102E-1,1.1992337E0,0E0,0E0,0E0,2.7699947E-1,1.5531199E0,6.119301E-1,0E0,2.1634796E0,1.6418674E0,2.92738E0,2.1977599E0,0E0,0E0,0E0,0E0,0E0,0E0,0E0,0E0,0E0,0E0,0E0,0E0,0E0,0E0,0E0,0E0,0E0,0E0,0E0,0E0,0E0,0E0,0E0,0E0,0E0,0E0,0E0,0E0,0E0,0E0,0E0,0E0,0E0,0E0,0E0,0E0,0E0,0E0,0E0,0E0,0E0,0E0,0E0,0E0],"parents":[2147483647,0,0,1,1,2,2,3,3,4,4,5,5,6,6,7,7,8,8,9,9,10,10,11,11,12,12,13,13,14,14,15,15,16,16,17,17,18,18,19,19,20,20,21,21,24,24,25,25,26,26,27,27,28,28,29,29,30,30,31,31,32,32,34,34,35,35,36,36,37,37,38,38,39,39,40,40,42,42,43,43,44,44,45,45,46,46,47,47,51,51,52,52,53,53,55,55,56,56,57,57,58,58],"right_children":[2,4,6,8,10,12,14,16,18,20,22,24,26,28,30,32,34,36,38,40,42,44,-1,-1,46,48,50,52,54,56,58,60,62,-1,64,66,68,70,72,74,76,-1,78,80,82,84,86,88,-1,-1,-1,90,92,94,-1,96,98,100,102,-1,-1,-1,-1,-1,-1,-1,-1,-1,-1,-1,-1,-1,-1,-1,-1,-1,-1,-1,-1,-1,-1,-1,-1,-1,-1,-1,-1,-1,-1,-1,-1,-1,-1,-1,-1,-1,-1,-1,-1,-1,-1,-1,-1],"split_conditions":[1.4298993E2,2.369155E1,3.1140814E0,2.3836946E0,-1.2212127E1,2.779E3,6.980634E0,1.3904613E2,3.456E3,-1.8779808E1,3.779E3,7.7102455E1,2.0291525E1,2.6701337E2,3.665E3,3.023E3,6.970338E-1,1.736621E1,7.38355E1,2.6452509E1,2.8890288E0,-6.8128905E0,5.9178736E-2,-8.0209235E-3,1.4749254E2,1.651688E1,3.07202E1,2.2439522E2,2.7851263E1,1.6527704E2,-1.17856245E1,2.779E3,-3.0792792E0,-4.236863E-2,1.4139212E2,-2.1174364E1,2.942E3,4.183115E1,1.0526277E2,3.158E3,6.970338E-1,4.5021836E-2,3.8815308E1,8.4897835E1,3.436E3,8.513923E0,-1.6009304E1,3.601E3,8.4107004E-2,-4.877817E-2,-3.8090148E-3,-7.6E0,3.055E3,1.6314467E2,3.6033202E-2,1.35E2,2.895E3,1.6527704E2,3.685E3,8.168123E-4,9.359766E-3,2.1772565E-2,-1.7790932E-2,5.12353E-3,-2.2351895E-2,3.4219127E-2,-5.006316E-3,-3.4900326E-2,-1.0987931E-2,-1.3893589E-3,1.13071585E-2,-5.369481E-3,9.037447E-4,-3.542045E-2,-6.131088E-3,-8.038319E-3,2.3213781E-2,-1.9642835E-2,5.7249293E-3,4.1132968E-2,1.4938854E-2,1.1801259E-2,-1.4052327E-2,-1.5299079E-2,4.5301683E-2,1.6353019E-2,6.0255498E-2,8.036635E-3,5.5154707E-2,-1.9386498E-2,-3.404669E-2,6.610509E-2,-1.1871962E-2,1.0211025E-2,-1.5765375E-2,6.0990476E-3,-1.1723878E-2,-1.4534648E-2,1.1873769E-2,5.5444267E-2,1.1302023E-2,5.5305492E-2,8.268886E-3],"split_indices":[3,4,1,1,6,0,1,3,0,6,0,2,4,2,0,0,1,1,2,4,1,6,0,0,3,4,4,3,4,3,6,0,4,0,3,6,0,2,3,0,1,0,4,2,0,4,6,0,0,0,0,6,0,3,0,2,0,3,0,0,0,0,0,0,0,0,0,0,0,0,0,0,0,0,0,0,0,0,0,0,0,0,0,0,0,0,0,0,0,0,0,0,0,0,0,0,0,0,0,0,0,0,0],"split_type":[0,0,0,0,0,0,0,0,0,0,0,0,0,0,0,0,0,0,0,0,0,0,0,0,0,0,0,0,0,0,0,0,0,0,0,0,0,0,0,0,0,0,0,0,0,0,0,0,0,0,0,0,0,0,0,0,0,0,0,0,0,0,0,0,0,0,0,0,0,0,0,0,0,0,0,0,0,0,0,0,0,0,0,0,0,0,0,0,0,0,0,0,0,0,0,0,0,0,0,0,0,0,0],"sum_hessian":[5.38E3,4.395E3,9.85E2,4.234E3,1.61E2,1.37E2,8.48E2,8.89E2,3.345E3,1.19E2,4.2E1,4.3E1,9.4E1,1.19E2,7.29E2,8.73E2,1.6E1,1.103E3,2.242E3,5.8E1,6.1E1,3.8E1,4E0,3E0,4E1,8.5E1,9E0,8.2E1,3.7E1,5.33E2,1.96E2,8.14E2,5.9E1,9E0,7E0,5.62E2,5.41E2,6.5E2,1.592E3,1E1,4.8E1,4E0,5.7E1,2.5E1,1.3E1,6E0,3.4E1,8.1E1,4E0,6E0,3E0,7.3E1,9E0,3.4E1,3E0,2.75E2,2.58E2,6.2E1,1.34E2,5.93E2,2.21E2,6E0,5.3E1,4E0,3E0,1.1E1,5.51E2,4.3E1,4.98E2,3.43E2,3.07E2,1.037E3,5.55E2,3E0,7E0,4E0,4.4E1,3.6E1,2.1E1,1E1,1.5E1,6E0,7E0,3E0,3E0,4E0,3E1,7.6E1,5E0,3.7E1,3.6E1,3E0,6E0,1.7E1,1.7E1,1.56E2,1.19E2,2.5E1,2.33E2,3.2E1,3E1,1E1,1.24E2],"tree_param":{"num_deleted":"0","num_feature":"8","num_nodes":"103","size_leaf_vector":"1"}},{"base_weights":[9.2078507E-4,-5.3810578E-2,1.1034129E-2,-6.776903E-2,1.7914226E-2,2.6726592E-2,-3.171233E-2,-1.7797774E-1,-5.6761622E-2,2.1537603E-1,-2.801233E-2,9.203295E-3,7.838813E-2,-1.3038605E-3,-6.5175876E-2,-2.2602649E-1,2.1755195E-1,-4.1998412E-2,-2.1324661E-1,-3.0118648E-3,3.181602E-2,-2.2165321E-1,4.2817775E-2,-5.937993E-3,8.743945E-2,6.710635E-2,1.9913344E-1,-7.4708275E-2,3.7996836E-2,-9.172304E-2,3.209644E-2,8.424393E-3,-2.534366E-1,4.62272E-2,-5.6556114E-3,1.457892E-1,-4.8416052E-2,-2.731404E-1,1.5278524E-1,1.568715E-2,-1.2576547E-2,-1.2610823E-1,-3.292037E-2,-1.2874906E-2,2.183242E-1,-1.4830028E-2,1.9062811E-1,-7.670549E-2,1.1459546E-1,5.24108E-2,1.4560147E-1,3.8534117E-1,1.2024544E-1,-1.7086507E-1,-1.2369953E-2,1.5652166E-1,1.5186993E-2,-7.707948E-2,-2.5601858E-1,1.9823149E-1,-8.6946875E-2,-2.877312E-2,4.077721E-3,-5.1170164E-3,2.0838972E-2,-1.0733102E-2,-2.2320137E-3,-1.1616217E-2,-3.2078546E-2,5.8350693E-2,-2.0234914E-2,-3.3265033E-3,-3.4084752E-2,-2.3890113E-2,6.221646E-3,4.9638618E-2,-8.261391E-6,-1.6761739E-2,-4.7304653E-4,1.2331428E-2,3.854787E-2,2.4643563E-2,-1.7057505E-2,1.3673796E-2,-1.4755465E-2,1.04869185E-2,1.571659E-3,2.9893655E-2,4.696612E-3,1.4835368E-2,4.4778008E-2,2.0984565E-3,4.3276124E-2,-2.329187E-2,-2.0637885E-3,-1.6980886E-2,5.0996644E-3,-4.831574E-3,2.4880566E-2,2.4612011E-2,2.3195749E-4,-9.260016E-3,1.1593911E-2,-1.47430645E-2,-5.1360417E-2,2.8009892E-2,-2.7455185E-2,-4.9217967E-3,-5.6267064E-2],"categories":[],"categories_nodes":[],"categories_segments":[],"categories_sizes":[],"default_left":[0,0,0,0,0,0,0,0,0,0,0,0,0,0,0,0,0,0,0,0,0,0,0,0,0,0,0,0,0,0,0,0,0,0,0,0,0,0,0,0,0,0,0,0,0,0,0,0,0,0,0,0,0,0,0,0,0,0,0,0,0,0,0,0,0,0,0,0,0,0,0,0,0,0,0,0,0,0,0,0,0,0,0,0,0,0,0,0,0,0,0,0,0,0,0,0,0,0,0,0,0,0,0,0,0,0,0,0,0],"id":15,"left_children":[1,3,5,7,9,11,13,15,17,19,21,23,25,27,29,31,33,35,37,39,-1,41,43,45,47,49,51,53,55,57,59,-1,61,-1,-1,63,65,67,69,-1,-1,71,-1,73,75,77,79,81,83,85,87,89,91,93,95,97,99,101,103,105,107,-1,-1,-1,-1,-1,-1,-1,-1,-1,-1,-1,-1,-1,-1,-1,-1,-1,-1,-1,-1,-1,-1,-1,-1,-1,-1,-1,-1,-1,-1,-1,-1,-1,-1,-1,-1,-1,-1,-1,-1,-1,-1,-1,-1,-1,-1,-1,-1],"loss_changes":[2.950437E0,8.381691E-1,3.023632E0,8.1196284E-1,1.2490495E0,2.9770398E0,1.2235155E0,1.2283117E0,1.4348199E0,6.160904E-1,1.5360906E0,2.9298832E0,1.0961056E0,1.8412712E0,1.4911492E0,5.1452446E-1,5.362741E-1,6.9992554E-1,1.237611E0,1.9325474E-1,0E0,2.2123086E-1,8.150842E-1,3.596352E0,1.8000455E0,8.5501766E-1,9.313748E-1,1.3162814E0,1.0997146E0,1.0344098E0,2.4609678E0,0E0,5.6110525E-1,0E0,0E0,2.6065066E-1,8.5329306E-1,2.7056623E-1,1.3799006E0,0E0,0E0,3.101179E-1,0E0,1.0848343E0,1.2642838E0,3.0341957E0,1.0689223E0,1.7634367E0,2.0217018E0,1.2317154E0,1.751157E0,1.6990161E-1,1.5275943E0,7.808633E-1,1.3873032E0,1.279682E0,1.0116432E0,1.2576411E0,8.651202E-1,2.0901456E0,1.2034123E0,0E0,0E0,0E0,0E0,0E0,0E0,0E0,0E0,0E0,0E0,0E0,0E0,0E0,0E0,0E0,0E0,0E0,0E0,0E0,0E0,0E0,0E0,0E0,0E0,0E0,0E0,0E0,0E0,0E0,0E0,0E0,0E0,0E0,0E0,0E0,0E0,0E0,0E0,0E0,0E0,0E0,0E0,0E0,0E0,0E0,0E0,0E0,0E0],"parents":[2147483647,0,0,1,1,2,2,3,3,4,4,5,5,6,6,7,7,8,8,9,9,10,10,11,11,12,12,13,13,14,14,15,15,16,16,17,17,18,18,19,19,21,21,22,22,23,23,24,24,25,25,26,26,27,27,28,28,29,29,30,30,32,32,35,35,36,36,37,37,38,38,41,41,43,43,44,44,45,45,46,46,47,47,48,48,49,49,50,50,51,51,52,52,53,53,54,54,55,55,56,56,57,57,58,58,59,59,60,60],"right_children":[2,4,6,8,10,12,14,16,18,20,22,24,26,28,30,32,34,36,38,40,-1,42,44,46,48,50,52,54,56,58,60,-1,62,-1,-1,64,66,68,70,-1,-1,72,-1,74,76,78,80,82,84,86,88,90,92,94,96,98,100,102,104,106,108,-1,-1,-1,-1,-1,-1,-1,-1,-1,-1,-1,-1,-1,-1,-1,-1,-1,-1,-1,-1,-1,-1,-1,-1,-1,-1,-1,-1,-1,-1,-1,-1,-1,-1,-1,-1,-1,-1,-1,-1,-1,-1,-1,-1,-1,-1,-1,-1],"split_conditions":[1.1815724E1,-3.7537029E0,-5.314812E0,-2.5219977E0,-2.9085352E0,3.665E3,3.488E3,3.2820792E2,3.3281888E2,-2.13585E0,6.119963E1,-7.1982307E0,1.9949545E1,1.3929987E2,1.8667126E0,-5.655769E0,-9.036787E0,-2.26379E0,-6.7448044E0,3.09E3,3.181602E-2,4E0,2.9718112E2,3.555559E2,-4.539401E0,3.995E3,3.702E3,3.208E3,1.8950677E2,3.4415734E0,2.9350153E1,8.424393E-3,3.948E3,4.62272E-2,-5.6556114E-3,2E0,7.4317636E0,-1.747134E1,-5.9041085E0,1.568715E-2,-1.2576547E-2,4.8576336E1,-3.292037E-2,-2.9124343E0,-1.7656833E0,2.747E3,7.0099826E0,-6.7448044E0,3.2574585E2,4E0,2.0527294E1,-1.9533808E1,3.851E3,-1.1369829E0,-3.8506482E0,2E0,1.6353771E1,1.7473152E0,1.7381139E2,-1.2769073E0,1.7881207E1,-2.877312E-2,4.077721E-3,-5.1170164E-3,2.0838972E-2,-1.0733102E-2,-2.2320137E-3,-1.1616217E-2,-3.2078546E-2,5.8350693E-2,-2.0234914E-2,-3.3265033E-3,-3.4084752E-2,-2.3890113E-2,6.221646E-3,4.9638618E-2,-8.261391E-6,-1.6761739E-2,-4.7304653E-4,1.2331428E-2,3.854787E-2,2.4643563E-2,-1.7057505E-2,1.3673796E-2,-1.4755465E-2,1.04869185E-2,1.571659E-3,2.9893655E-2,